{"learner":{"attributes":{"best_iteration":"99","best_ntree_limit":"100"},"feature_names":["gender","SeniorCitizen","Partner","Dependents","tenure","PhoneService","PaperlessBilling","MonthlyCharges","TotalCharges","MultipleLines_No","MultipleLines_No phone service","MultipleLines_Yes","InternetService_DSL","InternetService_Fiber optic","InternetService_No","OnlineSecurity_No","OnlineSecurity_No internet service","OnlineSecurity_Yes","OnlineBackup_No","OnlineBackup_No internet service","OnlineBackup_Yes","DeviceProtection_No","DeviceProtection_No internet service","DeviceProtection_Yes","TechSupport_No","TechSupport_No internet service","TechSupport_Yes","StreamingTV_No","StreamingTV_No internet service","StreamingTV_Yes","StreamingMovies_No","StreamingMovies_No internet service","StreamingMovies_Yes","Contract_Month-to-month","Contract_One year","Contract_Two year","PaymentMethod_Bank transfer (automatic)","PaymentMethod_Credit card (automatic)","PaymentMethod_Electronic check","PaymentMethod_Mailed check"],"feature_types":["int","int","int","int","int","int","int","float","float","i","i","i","i","i","i","i","i","i","i","i","i","i","i","i","i","i","i","i","i","i","i","i","i","i","i","i","i","i","i","i"],"gradient_booster":{"model":{"gbtree_model_param":{"num_parallel_tree":"1","num_trees":"100","size_leaf_vector":"0"},"tree_info":[0,0,0,0,0,0,0,0,0,0,0,0,0,0,0,0,0,0,0,0,0,0,0,0,0,0,0,0,0,0,0,0,0,0,0,0,0,0,0,0,0,0,0,0,0,0,0,0,0,0,0,0,0,0,0,0,0,0,0,0,0,0,0,0,0,0,0,0,0,0,0,0,0,0,0,0,0,0,0,0,0,0,0,0,0,0,0,0,0,0,0,0,0,0,0,0,0,0,0,0],"trees":[{"base_weights":[-9.362566E-1,-1.7281728E0,-2.8508124E-1,-1.8411553E0,-1.3829787E0,-8.767347E-1,2.0309348E-1,-1.8993134E0,-1.6056339E0,-1.6413794E0,-1.0935252E0,-3.0740038E-1,-1.2991453E0,8.108108E-1,-3.401015E-1,-1.0666667E0,-1.6923077E0,-0E0,-1.6643356E0,-1.132353E0,4E-1,-8.8372093E-1,2.4175824E-1,-1.5065616E0,-1.04E0,1.3707865E0,6.162571E-1,-6.592179E-1,-7.373272E-2,-1.4666667E0,-5.882353E-1,-5.4545456E-1,-1.7123288E0,-1.5E0,-1E0,-9.635627E-1,6.666667E-1,3.7606838E-1,-5.116279E-1,-1.117647E0,-1.5709779E0,-7.6233184E-1,-1.5849056E0,-3.3333334E-1,1.4588236E0,1.5111111E-1,9.480519E-1,-8.199234E-1,-2.1782178E-1,2.9268292E-1,-2.919708E-1,-1.1111112E0,-0E0,-0E0,-1.6E0,-8.192771E-1,-1.52E0,-1.0210971E0,2.857143E-1,1.1111112E0,-0E0,-3.448276E-1,4.6889952E-1,-7.878788E-1,2.857143E-1,-1.5789474E0,-8.679245E-1,-1.0204082E0,-2.5E-1,-1.1111112E0,-1.8153846E0,-5E-1,-0E0,1.4909091E0,2.2222222E-1,-8.5714287E-1,2.885572E-1,4.1379312E-1,1.0551181E0,-4.390244E-1,-1.1267606E0,2.4561404E-1,-7.5E-1,6.25E-1,-1.6666667E-1,-8.666667E-1,-1.2844037E-1],"categories":[],"categories_nodes":[],"categories_segments":[],"categories_sizes":[],"default_left":[1,1,1,1,1,1,1,0,1,1,1,1,1,1,1,1,1,0,0,1,0,1,1,1,1,1,1,1,1,0,1,0,0,1,1,1,1,1,1,1,0,1,1,1,1,1,1,1,1,1,1,0,0,0,0,0,0,0,0,0,0,0,0,0,0,0,0,0,0,0,0,0,0,0,0,0,0,0,0,0,0,0,0,0,0,0,0],"id":0,"left_children":[1,3,5,7,9,11,13,-1,15,17,19,21,23,25,27,29,31,-1,-1,33,-1,35,37,39,41,43,45,47,49,-1,51,-1,-1,53,55,57,59,61,63,65,-1,67,69,71,73,75,77,79,81,83,85,-1,-1,-1,-1,-1,-1,-1,-1,-1,-1,-1,-1,-1,-1,-1,-1,-1,-1,-1,-1,-1,-1,-1,-1,-1,-1,-1,-1,-1,-1,-1,-1,-1,-1,-1,-1],"loss_changes":[6.345626E2,1.9118652E1,1.9571614E2,2.6417236E0,8.751221E0,7.325159E1,1.2299379E2,0E0,2.3407745E0,2.7317963E0,4.4832687E0,4.191139E1,7.866455E0,1.8302383E1,1.6696917E1,2.007841E0,7.8234863E-1,0E0,0E0,1.8088226E0,0E0,8.62656E0,7.098447E0,6.304321E-1,1.1085144E1,7.1624146E0,2.0267288E1,6.170067E0,8.761749E0,0E0,2.614379E0,0E0,0E0,2.4000015E0,3.7354202E0,4.7300987E0,1.111111E0,4.076603E0,2.5929728E0,5.8794403E-1,0E0,7.1162033E0,8.766937E-1,1.6666666E-1,1.3549652E0,8.042492E0,3.9678802E0,7.1313515E0,6.4116297E0,6.362805E0,6.3263326E0,0E0,0E0,0E0,0E0,0E0,0E0,0E0,0E0,0E0,0E0,0E0,0E0,0E0,0E0,0E0,0E0,0E0,0E0,0E0,0E0,0E0,0E0,0E0,0E0,0E0,0E0,0E0,0E0,0E0,0E0,0E0,0E0,0E0,0E0,0E0,0E0],"parents":[2147483647,0,0,1,1,2,2,3,3,4,4,5,5,6,6,8,8,9,9,10,10,11,11,12,12,13,13,14,14,15,15,16,16,19,19,21,21,22,22,23,23,24,24,25,25,26,26,27,27,28,28,30,30,33,33,34,34,35,35,36,36,37,37,38,38,39,39,41,41,42,42,43,43,44,44,45,45,46,46,47,47,48,48,49,49,50,50],"right_children":[2,4,6,8,10,12,14,-1,16,18,20,22,24,26,28,30,32,-1,-1,34,-1,36,38,40,42,44,46,48,50,-1,52,-1,-1,54,56,58,60,62,64,66,-1,68,70,72,74,76,78,80,82,84,86,-1,-1,-1,-1,-1,-1,-1,-1,-1,-1,-1,-1,-1,-1,-1,-1,-1,-1,-1,-1,-1,-1,-1,-1,-1,-1,-1,-1,-1,-1,-1,-1,-1,-1,-1,-1],"split_conditions":[5E-1,9.3675E1,5E-1,5E-1,5E-1,5.5E0,1.45E1,-5.6979406E-1,2.55E1,9.4275E1,7.9555E3,5E-1,5E-1,1.2E2,5E-1,5E-1,3.5075E1,-0E0,-4.993007E-1,5E-1,1.20000005E-1,5E-1,5.5225E1,5E-1,1.219525E3,5E-1,8.0375E1,5E-1,2.65E1,-4.4000003E-1,5E-1,-1.6363637E-1,-5.1369864E-1,2.4E1,6.976E3,5E-1,1.5E0,5E-1,6.5649994E1,5E-1,-4.712934E-1,5E-1,5E-1,7.965E1,5E-1,5E-1,5E-1,5E-1,5E-1,5E-1,5E-1,-3.3333337E-1,-0E0,-0E0,-4.8000002E-1,-2.4578314E-1,-4.56E-1,-3.0632913E-1,8.5714296E-2,3.3333337E-1,-0E0,-1.0344828E-1,1.4066987E-1,-2.3636365E-1,8.5714296E-2,-4.7368425E-1,-2.6037738E-1,-3.0612245E-1,-7.5E-2,-3.3333337E-1,-5.446154E-1,-1.5E-1,-0E0,4.4727275E-1,6.666667E-2,-2.5714287E-1,8.656716E-2,1.2413794E-1,3.1653544E-1,-1.3170733E-1,-3.380282E-1,7.3684216E-2,-2.2500001E-1,1.875E-1,-5.0000004E-2,-2.6000002E-1,-3.853211E-2],"split_indices":[33,7,13,15,34,4,4,0,4,7,8,15,18,8,38,0,7,0,0,6,0,1,7,5,8,24,7,1,4,0,6,0,0,4,8,20,4,24,7,24,0,38,27,7,37,15,6,27,30,9,15,0,0,0,0,0,0,0,0,0,0,0,0,0,0,0,0,0,0,0,0,0,0,0,0,0,0,0,0,0,0,0,0,0,0,0,0],"split_type":[0,0,0,0,0,0,0,0,0,0,0,0,0,0,0,0,0,0,0,0,0,0,0,0,0,0,0,0,0,0,0,0,0,0,0,0,0,0,0,0,0,0,0,0,0,0,0,0,0,0,0,0,0,0,0,0,0,0,0,0,0,0,0,0,0,0,0,0,0,0,0,0,0,0,0,0,0,0,0,0,0,0,0,0,0,0,0],"sum_hessian":[1.2305E3,5.545E2,6.76E2,4.145E2,1.4E2,3.0525E2,3.7075E2,3.2675E2,8.775E1,7.15E1,6.85E1,1.3075E2,1.745E2,1.7475E2,1.96E2,1.4E1,7.375E1,1E0,7.05E1,6.7E1,1.5E0,6.35E1,6.725E1,9.425E1,8.025E1,4.35E1,1.3125E2,8.85E1,1.075E2,6.5E0,7.5E0,1.75E0,7.2E1,1.5E1,5.2E1,6.075E1,2.75E0,5.75E1,9.75E0,1.6E1,7.825E1,5.475E1,2.55E1,2E0,4.15E1,5.525E1,7.6E1,6.425E1,2.425E1,4E1,6.75E1,3.5E0,4E0,1E0,1.4E1,4.05E1,1.15E1,5.825E1,2.5E0,1.25E0,1.5E0,6.25E0,5.125E1,7.25E0,2.5E0,3.75E0,1.225E1,3.575E1,1.9E1,1.025E1,1.525E1,1E0,1E0,4.025E1,1.25E0,6E0,4.925E1,1.35E1,6.25E1,2.975E1,3.45E1,1.325E1,1.1E1,2.3E1,1.7E1,1.4E1,5.35E1],"tree_param":{"num_deleted":"0","num_feature":"40","num_nodes":"87","size_leaf_vector":"0"}},{"base_weights":[-6.949309E-1,-1.3140942E0,-2.0899168E-1,-1.4096059E0,-1.0313163E0,-6.435637E-1,1.447524E-1,-1.4481677E0,-1.1256907E0,-1.2376957E0,-8.0738205E-1,-2.1910267E-1,-9.66827E-1,6.1298954E-1,-2.3656262E-1,-1.5166183E0,-1.3404084E0,-1.3393273E0,-7.4378705E-1,-0E0,-1.2560912E0,-8.3807445E-1,3.287948E-1,-6.4678055E-1,1.7452298E-1,-1.1292932E0,-7.682636E-1,9.5774925E-1,3.692035E-1,-3.383259E-2,-5.098302E-1,-1.4370849E0,-1.0152956E0,-8.938502E-1,1.4756247E-1,-1.1079036E0,-1.5303558E0,-9.6215177E-1,-5.617113E-1,-3.6522838E-1,-8.970178E-1,8.6202437E-1,4.999904E-2,-1.2131232E0,-9.3545234E-1,-2.2316012E-1,-9.673941E-1,-3.9486424E-3,1.0370347E0,9.4637436E-1,9.977207E-2,2.82447E-1,-2.3898256E-1,-3.4667987E-1,-1.1098003E0,-8.547195E-2,-1.102691E0,1.0085785E-1,-1.0516335E0,-3.961056E-1,5.396676E-1,-1.3122494E0,-7.374073E-1,-8.537755E-1,-1.4529393E0,1.032462E-1,-7.1599287E-1,-6.0498744E-1,9.437797E-2,-1.1636145E0,-3.0326715E-1,-9.393432E-2,1.0983045E0,-6.064037E-1,1.3876742E-1,-9.931702E-1,-2.7290443E-1,7.842445E-2,-9.481176E-1,-1.0671695E0,-1.0554723E-1,-6.934756E-1,1.1208298E0,1.2972016E0,7.4841535E-1,-1.2763488E-1,1.0145383E0,-3.4537348E-1,3.8176203E-1,-9.548264E-1,4.4449863E-1,-1.018297E-1,-8.531513E-1,-1.7001434E-1,-6.9664174E-1,-8.141215E-1,-1.3669075E0],"categories":[],"categories_nodes":[],"categories_segments":[],"categories_sizes":[],"default_left":[1,1,1,1,1,1,1,1,1,1,1,1,1,1,1,0,1,0,1,0,1,1,0,1,1,1,1,1,1,1,1,0,1,1,1,1,0,1,1,1,1,1,1,0,1,1,1,1,1,1,1,1,1,1,1,0,0,0,0,0,0,0,0,0,0,0,0,0,0,0,0,0,0,0,0,0,0,0,0,0,0,0,0,0,0,0,0,0,0,0,0,0,0,0,0,0,0],"id":1,"left_children":[1,3,5,7,9,11,13,15,17,19,21,23,25,27,29,-1,31,-1,33,-1,35,37,-1,39,41,43,45,47,49,51,53,-1,55,57,59,61,-1,63,65,67,69,71,73,-1,75,77,79,81,83,85,87,89,91,93,95,-1,-1,-1,-1,-1,-1,-1,-1,-1,-1,-1,-1,-1,-1,-1,-1,-1,-1,-1,-1,-1,-1,-1,-1,-1,-1,-1,-1,-1,-1,-1,-1,-1,-1,-1,-1,-1,-1,-1,-1,-1,-1],"loss_changes":[3.5511682E2,1.2569336E1,1.0201165E2,2.5892334E0,5.2313385E0,4.063449E1,6.5545685E1,4.440918E-1,3.1302338E0,1.554657E0,2.6306343E0,2.1996313E1,4.574463E0,1.3488003E1,1.1207167E1,0E0,2.911621E0,0E0,2.8594847E0,0E0,1.0390472E0,1.7240982E0,0E0,4.0767593E0,5.819337E0,3.3826447E-1,8.363869E0,5.157688E0,1.5160676E1,7.6841564E0,8.055025E0,0E0,2.7726784E0,2.8675947E0,1.0231233E0,2.6136703E0,0E0,1.109169E0,2.4197083E0,3.4844813E0,4.777445E0,2.4611883E0,3.524198E0,0E0,9.4262314E-1,4.9824433E0,4.8398743E0,5.542399E0,3.7181091E0,2.4064312E0,8.667213E0,9.776434E0,5.9565234E0,4.1625185E0,2.539711E-1,0E0,0E0,0E0,0E0,0E0,0E0,0E0,0E0,0E0,0E0,0E0,0E0,0E0,0E0,0E0,0E0,0E0,0E0,0E0,0E0,0E0,0E0,0E0,0E0,0E0,0E0,0E0,0E0,0E0,0E0,0E0,0E0,0E0,0E0,0E0,0E0,0E0,0E0,0E0,0E0,0E0,0E0],"parents":[2147483647,0,0,1,1,2,2,3,3,4,4,5,5,6,6,7,7,8,8,9,9,10,10,11,11,12,12,13,13,14,14,16,16,18,18,20,20,21,21,23,23,24,24,25,25,26,26,27,27,28,28,29,29,30,30,32,32,33,33,34,34,35,35,37,37,38,38,39,39,40,40,41,41,42,42,44,44,45,45,46,46,47,47,48,48,49,49,50,50,51,51,52,52,53,53,54,54],"right_children":[2,4,6,8,10,12,14,16,18,20,22,24,26,28,30,-1,32,-1,34,-1,36,38,-1,40,42,44,46,48,50,52,54,-1,56,58,60,62,-1,64,66,68,70,72,74,-1,76,78,80,82,84,86,88,90,92,94,96,-1,-1,-1,-1,-1,-1,-1,-1,-1,-1,-1,-1,-1,-1,-1,-1,-1,-1,-1,-1,-1,-1,-1,-1,-1,-1,-1,-1,-1,-1,-1,-1,-1,-1,-1,-1,-1,-1,-1,-1,-1,-1],"split_conditions":[5E-1,9.3675E1,5E-1,5E-1,5E-1,5.5E0,1.149825E3,5E-1,5E-1,9.4275E1,7.9555E3,5E-1,5E-1,5E-1,5E-1,-4.549855E-1,5E-1,-4.0179822E-1,5.2623E3,-0E0,7.759775E3,5E-1,9.8638445E-2,1.5E0,4.355E1,5E-1,5.41125E2,5E-1,9.5725E1,2.85E1,4.95E1,-4.311255E-1,1.01042505E3,4.99E1,5E-1,1.05925E2,-4.5910677E-1,5E-1,4.45E1,5E-1,2.5675E1,2.4725E1,4.5025E1,-3.6393696E-1,5.6E1,5E-1,5E-1,9.125E1,4.246E2,5E-1,7.5675E1,8.6075E1,5E-1,8.5625E1,5.85E1,-2.5641587E-2,-3.3080733E-1,3.0257355E-2,-3.1549007E-1,-1.1883168E-1,1.6190028E-1,-3.9367485E-1,-2.212222E-1,-2.5613266E-1,-4.358818E-1,3.0973861E-2,-2.1479787E-1,-1.8149623E-1,2.8313393E-2,-3.4908438E-1,-9.098015E-2,-2.8180297E-2,3.2949138E-1,-1.8192112E-1,4.1630227E-2,-2.9795107E-1,-8.187133E-2,2.3527335E-2,-2.844353E-1,-3.2015088E-1,-3.166417E-2,-2.080427E-1,3.3624896E-1,3.891605E-1,2.2452462E-1,-3.8290467E-2,3.043615E-1,-1.0361205E-1,1.1452861E-1,-2.8644794E-1,1.333496E-1,-3.0548912E-2,-2.559454E-1,-5.10043E-2,-2.0899253E-1,-2.4423645E-1,-4.1007227E-1],"split_indices":[33,7,13,38,34,4,8,34,24,7,8,24,18,9,27,0,32,0,8,0,8,38,0,4,8,24,8,15,8,4,4,0,8,7,0,7,0,30,4,6,7,7,8,0,4,3,1,7,8,24,7,7,9,7,4,0,0,0,0,0,0,0,0,0,0,0,0,0,0,0,0,0,0,0,0,0,0,0,0,0,0,0,0,0,0,0,0,0,0,0,0,0,0,0,0,0,0],"split_type":[0,0,0,0,0,0,0,0,0,0,0,0,0,0,0,0,0,0,0,0,0,0,0,0,0,0,0,0,0,0,0,0,0,0,0,0,0,0,0,0,0,0,0,0,0,0,0,0,0,0,0,0,0,0,0,0,0,0,0,0,0,0,0,0,0,0,0,0,0,0,0,0,0,0,0,0,0,0,0,0,0,0,0,0,0,0,0,0,0,0,0,0,0,0,0,0,0],"sum_hessian":[1.1801901E3,5.182076E2,6.6198254E2,3.8439023E2,1.3381735E2,2.966863E2,3.6529623E2,3.3481448E2,4.9575718E1,6.7282394E1,6.6534966E1,1.2899161E2,1.676947E2,1.6368773E2,2.0160849E2,1.9675691E2,1.3805759E2,3.0183887E1,1.939183E1,1E0,6.6282394E1,6.504035E1,1.4946129E0,6.1513493E1,6.747811E1,8.965273E1,7.804197E1,6.658924E1,9.709849E1,1.16387474E2,8.5221016E1,1.03777695E2,3.427989E1,1.6595148E1,2.796682E0,4.6303658E1,1.9978735E1,4.3174877E1,2.1865477E1,3.0102955E1,3.1410538E1,9.439533E0,5.8038578E1,5.891538E1,3.073735E1,2.1448671E1,5.65933E1,5.1440763E0,6.1445168E1,3.0102024E1,6.699647E1,4.5642963E1,7.0744514E1,6.8241806E1,1.6979212E1,3.115136E0,3.1164751E1,2.3213727E0,1.4273776E1,1.167583E0,1.6290989E0,2.8205273E1,1.8098383E1,3.76095E1,5.5653734E0,4.1800666E0,1.768541E1,1.9575071E1,1.0527883E1,2.1014956E1,1.0395581E1,1.9901385E0,7.4493947E0,6.219183E0,5.1819393E1,2.781521E1,2.922139E0,1.5777151E1,5.671521E0,5.050781E1,6.085493E0,3.4267929E0,1.7172832E0,3.0477594E1,3.0967575E1,1.744396E0,2.8357628E1,2.5894688E1,4.110178E1,4.719233E0,4.092373E1,5.8783176E1,1.1961341E1,4.6336376E1,2.1905426E1,9.835101E0,7.14411E0],"tree_param":{"num_deleted":"0","num_feature":"40","num_nodes":"97","size_leaf_vector":"0"}},{"base_weights":[-5.450541E-1,-1.0889152E0,-1.5756498E-1,-1.1816527E0,-7.9947245E-1,-6.0023594E-1,4.698329E-2,-1.2391093E0,-9.690677E-1,-6.493206E-1,-1.172245E0,-6.782825E-1,-1.7714475E-1,3.6928052E-1,-2.4681112E-1,-1.0809802E0,-6.108304E-1,3.6550406E-1,-6.767653E-1,-1.1909672E0,-3.2376894E-1,-2.6885086E-1,-7.709069E-1,5.3480935E-1,-6.651859E-1,1.1835858E-1,8.054908E-1,-5.8499146E-2,-7.923494E-1,-4.1393128E-1,-1.1736534E0,-9.097166E-1,-3.1258714E-1,-5.487096E-1,-9.557394E-1,-3.620628E-1,1.031092E0,-9.807442E-1,-6.109579E-1,9.904189E-1,-1.5579666E-1,-1.2523209E0,-3.947323E-1,4.6175233E-1,-1.4010458E-1,8.329727E-1,-5.160531E-1,-1.9954014E-1,3.1218877E-1,-7.1177703E-1,-1.277763E0,-1.015319E0,4.9729943E-2,-1.2039918E0,-1.8638211E-1,-1.0226104E0,-3.0165508E-1,7.2774136E-1,-5.21646E-1,-9.773375E-1,-2.7330127E-1,-3.8650936E-1,-1.13371E0,-9.501446E-1,-2.3984528E-1,-8.7789464E-1,-1.2100563E0,7.7185464E-1,-6.6866755E-1,1.2415438E0,3.8467914E-1,6.401084E-1,-4.6656707E-1,4.673547E-1,-6.4130217E-1,1.50301E-1,7.260879E-1,-6.794964E-1,-1.3711472E-2,9.2703855E-1,3.2941633E-1,-5.919468E-1,-9.411676E-2,6.7565435E-1,9.3623824E-2,-7.614886E-1,4.474452E-1],"categories":[],"categories_nodes":[],"categories_segments":[],"categories_sizes":[],"default_left":[1,1,1,1,1,1,1,0,1,1,1,1,1,1,1,1,1,0,1,0,0,1,1,1,1,1,1,1,1,1,1,1,1,1,1,1,0,1,1,1,1,0,1,1,1,1,0,1,1,1,0,0,0,0,0,0,0,0,0,0,0,0,0,0,0,0,0,0,0,0,0,0,0,0,0,0,0,0,0,0,0,0,0,0,0,0,0],"id":2,"left_children":[1,3,5,7,9,11,13,-1,15,17,19,21,23,25,27,29,31,-1,33,-1,-1,35,37,39,41,43,45,47,49,51,53,55,57,59,61,63,-1,65,67,69,71,-1,73,75,77,79,-1,81,83,85,-1,-1,-1,-1,-1,-1,-1,-1,-1,-1,-1,-1,-1,-1,-1,-1,-1,-1,-1,-1,-1,-1,-1,-1,-1,-1,-1,-1,-1,-1,-1,-1,-1,-1,-1,-1,-1],"loss_changes":[2.2982187E2,1.123877E1,5.7839886E1,2.9723816E0,5.5766144E0,6.5452576E0,4.152829E1,0E0,2.4381104E0,2.557911E0,1.1115265E-1,6.2421646E0,1.1749103E1,2.2789898E1,2.3533432E1,3.07415E0,1.560452E0,0E0,2.373726E0,0E0,0E0,4.361127E0,4.037712E0,4.5247955E0,2.6656399E0,1.1949339E1,3.1965942E0,9.039634E0,1.3909874E0,2.4400508E0,1.2737656E0,3.6516094E-1,2.9639244E0,6.5738316E0,2.01087E0,2.0324702E0,0E0,3.0809402E-1,6.9839134E0,8.161335E-1,1.8780124E0,0E0,3.5061474E0,4.644231E0,5.251601E0,3.2476578E0,0E0,5.115121E0,3.7273316E0,3.3778553E0,0E0,0E0,0E0,0E0,0E0,0E0,0E0,0E0,0E0,0E0,0E0,0E0,0E0,0E0,0E0,0E0,0E0,0E0,0E0,0E0,0E0,0E0,0E0,0E0,0E0,0E0,0E0,0E0,0E0,0E0,0E0,0E0,0E0,0E0,0E0,0E0,0E0],"parents":[2147483647,0,0,1,1,2,2,3,3,4,4,5,5,6,6,8,8,9,9,10,10,11,11,12,12,13,13,14,14,15,15,16,16,18,18,21,21,22,22,23,23,24,24,25,25,26,26,27,27,28,28,29,29,30,30,31,31,32,32,33,33,34,34,35,35,37,37,38,38,39,39,40,40,42,42,43,43,44,44,45,45,47,47,48,48,49,49],"right_children":[2,4,6,8,10,12,14,-1,16,18,20,22,24,26,28,30,32,-1,34,-1,-1,36,38,40,42,44,46,48,50,52,54,56,58,60,62,64,-1,66,68,70,72,-1,74,76,78,80,-1,82,84,86,-1,-1,-1,-1,-1,-1,-1,-1,-1,-1,-1,-1,-1,-1,-1,-1,-1,-1,-1,-1,-1,-1,-1,-1,-1,-1,-1,-1,-1,-1,-1,-1,-1,-1,-1,-1,-1],"split_conditions":[5E-1,9.545E1,5E-1,5E-1,7.05E1,9.1725E1,1.05E1,-3.717328E-1,5E-1,9.5825E1,1.1725E2,1.5E0,2.95E1,7.5775E1,5E-1,1.09675E3,5E-1,1.0965122E-1,5E-1,-3.5729018E-1,-9.7130686E-2,5E-1,2.9650002E1,5E-1,4.073425E3,8.17E1,1.0515E2,9.705E1,6.6375E1,5E-1,6.0558496E3,6.75E1,5.025E1,1.032E2,5.2971504E3,1.9425E1,3.0932763E-1,1.75E1,1.16425E2,5E-1,9.48E1,-3.7569627E-1,4.63495E3,5.025E1,5E-1,7.5907495E2,-1.5481593E-1,5E-1,1.00275E2,6.4675E1,-3.833289E-1,-3.045957E-1,1.4918984E-2,-3.6119753E-1,-5.5914637E-2,-3.0678314E-1,-9.0496525E-2,2.1832241E-1,-1.5649381E-1,-2.9320127E-1,-8.199038E-2,-1.1595281E-1,-3.40113E-1,-2.850434E-1,-7.195359E-2,-2.633684E-1,-3.630169E-1,2.315564E-1,-2.0060028E-1,3.7246314E-1,1.1540375E-1,1.9203253E-1,-1.3997012E-1,1.4020643E-1,-1.9239067E-1,4.50903E-2,2.1782638E-1,-2.0384893E-1,-4.113442E-3,2.7811158E-1,9.88249E-2,-1.7758404E-1,-2.823503E-2,2.0269631E-1,2.8087148E-2,-2.2844659E-1,1.3423356E-1],"split_indices":[33,7,15,24,4,7,4,0,38,7,7,4,4,7,12,8,0,0,3,0,0,1,7,0,8,8,7,7,7,15,8,4,7,7,8,7,0,4,8,9,7,0,8,8,18,8,0,6,7,7,0,0,0,0,0,0,0,0,0,0,0,0,0,0,0,0,0,0,0,0,0,0,0,0,0,0,0,0,0,0,0,0,0,0,0,0,0],"split_type":[0,0,0,0,0,0,0,0,0,0,0,0,0,0,0,0,0,0,0,0,0,0,0,0,0,0,0,0,0,0,0,0,0,0,0,0,0,0,0,0,0,0,0,0,0,0,0,0,0,0,0,0,0,0,0,0,0,0,0,0,0,0,0,0,0,0,0,0,0,0,0,0,0,0,0,0,0,0,0,0,0,0,0,0,0,0,0],"sum_hessian":[1.0903594E3,4.5289188E2,6.3746747E2,3.4066153E2,1.12230354E2,2.0085495E2,4.3661255E2,2.6437772E2,7.6283806E1,8.195924E1,3.0271112E1,1.6906482E2,3.1790133E1,2.0808405E2,2.285285E2,5.6588264E1,1.9695543E1,1.8337783E0,8.0125465E1,2.9222641E1,1.0484716E0,3.1910788E1,1.3715404E2,1.2890155E1,1.8899979E1,1.329045E2,7.517954E1,1.7070932E2,5.781918E1,7.5696373E0,4.9018627E1,8.8131485E0,1.0882396E1,5.6950638E1,2.3174826E1,3.0448935E1,1.461852E0,5.7105576E1,8.0048454E1,7.504876E0,5.3852787E0,4.815479E0,1.4084499E1,5.6737118E1,7.616738E1,7.401017E1,1.1693676E0,1.2399345E2,4.6715874E1,5.1703415E1,6.1157627E0,2.7774212E0,4.7922163E0,4.7344246E1,1.674381E0,6.858105E0,1.9550432E0,1.4057921E0,9.4766035E0,2.1281218E1,3.5669422E1,6.2753143E0,1.6899511E1,4.073588E0,2.6375347E1,4.275692E1,1.4348657E1,2.7111156E0,7.733734E1,4.5633783E0,2.9414978E0,1.2146716E0,4.170607E0,2.9333043E0,1.1151196E1,2.6767324E1,2.9969795E1,1.3628918E1,6.2538464E1,6.1652348E1,1.2357824E1,2.5280283E1,9.8713165E1,1.6757477E1,2.9958397E1,4.9906357E1,1.7970592E0],"tree_param":{"num_deleted":"0","num_feature":"40","num_nodes":"87","size_leaf_vector":"0"}},{"base_weights":[-4.3299666E-1,-9.299368E-1,-1.180322E-1,-1.0449295E0,-6.522984E-1,-5.1052094E-1,5.172495E-2,-1.1019851E0,-7.2175217E-1,-7.858317E-1,-3.5039935E-1,-3.5044834E-1,-7.8956974E-1,2.6727772E-1,-1.3908415E-1,-1.1363435E0,-7.992296E-1,-6.651408E-2,-9.7959787E-1,-8.621023E-1,-3.014119E-1,1.0805042E0,-4.410206E-1,-4.413042E-1,1.1185436E-1,-9.499209E-1,-2.6131868E-1,8.3914086E-2,6.04471E-1,-7.954009E-3,-5.1966345E-1,-9.57683E-1,-4.3791372E-1,-5.890843E-1,5.8341086E-1,-1.024625E0,1.5440081E-1,-3.0923745E-1,-9.3063134E-1,-8.8125914E-1,-2.2576697E-2,-7.468036E-1,-1.2603366E-1,-2.621464E-2,-5.2946866E-1,3.464513E-1,-5.606528E-1,-1.1213036E0,-6.0753816E-1,4.852017E-1,-4.2179134E-1,2.0408273E-1,-3.2237256E-1,-8.36975E-2,6.932294E-1,-3.8149172E-1,8.626734E-2,-2.7093208E-1,-6.750267E-1,-1.1583924E0,-6.3471794E-1,-1.2605153E-1,-8.179679E-1,-1.0570912E0,3.0369204E-1,1.0347403E0,-5.2029437E-1,-5.3557086E-1,-1.1273947E0,-8.064112E-1,3.4456122E-1,-1.0346498E0,-6.552748E-1,3.6063573E-1,-8.7780625E-1,-9.7524804E-1,-2.6480046E-1,3.2496312E-1,-3.9082554E-1,-4.685101E-1,4.173571E-1,-6.425439E-2,-6.528399E-1,5.8555093E-2,1.1879156E0,2.1085675E-1,-8.6612505E-1,-1.3505877E0,-8.2009023E-1,7.1897537E-1,-7.555133E-1,6.621114E-1,8.715664E-2,-9.903766E-1,-7.432214E-2,-3.3659083E-1,2.7356365E-1,-6.2555784E-1,-5.188047E-2,-4.7985372E-1,4.2297778E-1,7.444002E-1,7.998185E-2,-2.0808275E-1,-8.281144E-1,-6.873416E-2,4.150172E-1,-9.0173596E-1,8.193928E-3,4.8675743E-1,-7.296442E-1],"categories":[],"categories_nodes":[],"categories_segments":[],"categories_sizes":[],"default_left":[1,1,1,1,1,1,1,1,1,1,1,1,1,1,1,0,1,1,1,1,1,0,1,1,1,1,1,1,1,1,1,1,1,1,1,1,0,1,1,0,1,1,1,1,1,1,1,1,1,1,1,1,1,1,1,1,1,1,1,0,0,0,0,0,0,0,0,0,0,0,0,0,0,0,0,0,0,0,0,0,0,0,0,0,0,0,0,0,0,0,0,0,0,0,0,0,0,0,0,0,0,0,0,0,0,0,0,0,0,0,0],"id":3,"left_children":[1,3,5,7,9,11,13,15,17,19,21,23,25,27,29,-1,31,33,35,37,39,-1,41,43,45,47,49,51,53,55,57,59,61,63,65,67,-1,69,71,-1,73,75,77,79,81,83,85,87,89,91,93,95,97,99,101,103,105,107,109,-1,-1,-1,-1,-1,-1,-1,-1,-1,-1,-1,-1,-1,-1,-1,-1,-1,-1,-1,-1,-1,-1,-1,-1,-1,-1,-1,-1,-1,-1,-1,-1,-1,-1,-1,-1,-1,-1,-1,-1,-1,-1,-1,-1,-1,-1,-1,-1,-1,-1,-1,-1],"loss_changes":[1.562782E2,1.1688721E1,4.084938E1,4.2260437E0,4.4066925E0,7.9906044E0,1.7666023E1,1.4797363E0,7.3283634E0,2.685543E0,5.328967E0,5.0650587E0,5.3991127E0,1.2414141E1,1.1375133E1,0E0,1.1131039E0,4.90515E0,1.7579765E0,2.3013344E0,1.9820116E0,0E0,3.363944E0,3.6457996E0,3.4144905E0,2.2976112E0,2.2297628E0,6.498211E0,4.385725E0,6.037246E0,2.0745173E0,4.1630173E-1,1.0824573E0,3.6395316E0,3.7704353E0,9.173298E-1,0E0,3.2144046E0,1.0492439E0,0E0,3.3931444E0,1.7253475E0,2.3826425E0,3.8390312E0,4.6890736E0,3.7460823E0,1.5167215E0,1.1472168E0,4.2956877E0,1.8565375E-1,2.7809587E0,3.9347253E0,2.465621E0,2.0067875E0,1.9132042E0,2.5034313E0,7.01225E0,4.255999E0,2.5941868E0,0E0,0E0,0E0,0E0,0E0,0E0,0E0,0E0,0E0,0E0,0E0,0E0,0E0,0E0,0E0,0E0,0E0,0E0,0E0,0E0,0E0,0E0,0E0,0E0,0E0,0E0,0E0,0E0,0E0,0E0,0E0,0E0,0E0,0E0,0E0,0E0,0E0,0E0,0E0,0E0,0E0,0E0,0E0,0E0,0E0,0E0,0E0,0E0,0E0,0E0,0E0,0E0],"parents":[2147483647,0,0,1,1,2,2,3,3,4,4,5,5,6,6,7,7,8,8,9,9,10,10,11,11,12,12,13,13,14,14,16,16,17,17,18,18,19,19,20,20,22,22,23,23,24,24,25,25,26,26,27,27,28,28,29,29,30,30,31,31,32,32,33,33,34,34,35,35,37,37,38,38,40,40,41,41,42,42,43,43,44,44,45,45,46,46,47,47,48,48,49,49,50,50,51,51,52,52,53,53,54,54,55,55,56,56,57,57,58,58],"right_children":[2,4,6,8,10,12,14,16,18,20,22,24,26,28,30,-1,32,34,36,38,40,-1,42,44,46,48,50,52,54,56,58,60,62,64,66,68,-1,70,72,-1,74,76,78,80,82,84,86,88,90,92,94,96,98,100,102,104,106,108,110,-1,-1,-1,-1,-1,-1,-1,-1,-1,-1,-1,-1,-1,-1,-1,-1,-1,-1,-1,-1,-1,-1,-1,-1,-1,-1,-1,-1,-1,-1,-1,-1,-1,-1,-1,-1,-1,-1,-1,-1,-1,-1,-1,-1,-1,-1,-1,-1,-1,-1,-1,-1],"split_conditions":[5E-1,5E-1,5E-1,1.03475E2,9.995E1,1.95E1,1.05E1,5E-1,6.300075E3,5E-1,1.00175E2,8.0475E1,9.93E1,7.5649994E1,5E-1,-3.4090304E-1,5E-1,5.519075E3,1.177E2,2.55E1,8.95975E2,3.2415128E-1,5E-1,5E-1,1.0005E2,5E-1,2.90415E3,5.5E0,5E-1,5E-1,5E-1,5E-1,4.10695E3,5E-1,1.09775E2,5E-1,4.6320245E-2,5E-1,5E-1,-2.6437774E-1,4.9E1,5E-1,5E-1,3.655E1,2.0225E1,9.6E1,5E-1,2.95E1,2.25E1,1.04175E2,3.95E1,5E-1,5E-1,4.23875E2,5E-1,5E-1,9.5625E1,6.59625E2,5.225E2,-3.4751773E-1,-1.904154E-1,-3.781546E-2,-2.4539037E-1,-3.1712738E-1,9.1107614E-2,3.1042212E-1,-1.5608832E-1,-1.6067126E-1,-3.3821842E-1,-2.4192338E-1,1.0336837E-1,-3.1039497E-1,-1.9658245E-1,1.0819072E-1,-2.6334187E-1,-2.9257444E-1,-7.944014E-2,9.748894E-2,-1.1724766E-1,-1.4055303E-1,1.2520713E-1,-1.9276317E-2,-1.9585198E-1,1.7566528E-2,3.5637468E-1,6.325703E-2,-2.5983754E-1,-4.0517634E-1,-2.4602708E-1,2.1569262E-1,-2.2665401E-1,1.9863343E-1,2.6146993E-2,-2.97113E-1,-2.2296643E-2,-1.0097725E-1,8.20691E-2,-1.8766735E-1,-1.5564142E-2,-1.4395612E-1,1.2689334E-1,2.2332007E-1,2.3994556E-2,-6.2424827E-2,-2.4843432E-1,-2.062025E-2,1.2450516E-1,-2.705208E-1,2.4581784E-3,1.4602724E-1,-2.1889326E-1],"split_indices":[33,15,24,7,7,4,4,38,8,39,7,7,7,7,12,0,18,8,7,4,8,0,0,9,7,38,8,4,15,6,5,0,8,18,7,2,0,21,38,0,4,38,2,7,8,7,15,4,4,7,4,15,38,8,39,36,7,8,8,0,0,0,0,0,0,0,0,0,0,0,0,0,0,0,0,0,0,0,0,0,0,0,0,0,0,0,0,0,0,0,0,0,0,0,0,0,0,0,0,0,0,0,0,0,0,0,0,0,0,0,0],"split_type":[0,0,0,0,0,0,0,0,0,0,0,0,0,0,0,0,0,0,0,0,0,0,0,0,0,0,0,0,0,0,0,0,0,0,0,0,0,0,0,0,0,0,0,0,0,0,0,0,0,0,0,0,0,0,0,0,0,0,0,0,0,0,0,0,0,0,0,0,0,0,0,0,0,0,0,0,0,0,0,0,0,0,0,0,0,0,0,0,0,0,0,0,0,0,0,0,0,0,0,0,0,0,0,0,0,0,0,0,0,0,0],"sum_hessian":[9.98166E2,3.8646393E2,6.117021E2,2.7132324E2,1.1514067E2,1.8408325E2,4.2761887E2,2.2856175E2,4.2761494E1,7.8719284E1,3.642139E1,1.18413055E2,6.56702E1,2.0060225E2,2.2701662E2,2.0279424E2,2.5767517E1,1.2430652E1,3.0330841E1,6.733751E1,1.1381773E1,1.5186538E0,3.4902737E1,9.900176E1,1.9411291E1,4.9765564E1,1.5904629E1,1.3075003E2,6.98522E1,1.6960086E2,5.741576E1,1.6764835E1,9.002682E0,6.942315E0,5.4883366E0,2.9265268E1,1.0655717E0,8.034095E0,5.9303413E1,2.9943724E0,8.387401E0,1.7014502E1,1.7888237E1,1.7571281E1,8.143048E1,1.4750555E1,4.6607375E0,3.1648586E1,1.811698E1,2.4559495E0,1.3448679E1,1.0128913E2,2.9460907E1,7.9866323E0,6.1865574E1,3.354879E1,1.3605206E2,2.3129717E1,3.428604E1,8.744036E0,8.0208E0,5.6764264E0,3.3262548E0,4.433932E0,2.508383E0,3.9397645E0,1.5485721E0,6.160489E0,2.310478E1,4.431095E0,3.6030002E0,4.1041946E1,1.8261467E1,6.191446E0,2.1959543E0,1.0849214E1,6.165287E0,6.533337E0,1.1354899E1,8.770146E0,8.801134E0,1.7387112E1,6.4043365E1,1.1787276E1,2.9632783E0,1.4098115E0,3.2509258E0,1.5991788E1,1.5656797E1,1.4309111E0,1.6686068E1,1.2409885E0,1.2149612E0,4.399405E0,9.0492735E0,1.1096458E1,9.019267E1,1.3272053E1,1.6188854E1,4.511862E0,3.4747708E0,5.690354E1,4.9620304E0,2.5221867E1,8.326923E0,9.299635E1,4.305571E1,6.4109282E0,1.6718788E1,1.1842103E0,3.3101833E1],"tree_param":{"num_deleted":"0","num_feature":"40","num_nodes":"111","size_leaf_vector":"0"}},{"base_weights":[-3.4643772E-1,-8.0408007E-1,-9.0309344E-2,-9.267662E-1,-5.2152556E-1,-3.922056E-1,3.6065318E-2,-1.0708067E0,-7.566523E-1,-4.1611013E-1,-9.725943E-1,-2.4643652E-1,-6.181659E-1,-1.5395533E-1,1.7768055E-1,-8.005983E-1,1.5931587E-1,-7.097521E-1,-3.0494553E-1,-1.027228E0,-3.6872065E-1,-9.142243E-1,-1.830099E-1,-7.943858E-1,-1.3729022E-1,-3.3812886E-1,2.1471601E-2,2.5952584E-1,-2.5263393E-1,-9.0851325E-1,-5.154812E-1,-4.9536294E-1,6.472487E-1,-7.98582E-1,3.6979878E-1,-4.870396E-1,6.800236E-2,-5.251162E-1,-1.1226709E0,-6.673923E-1,1.0995627E-1,4.108459E-2,-3.7702373E-1,-9.83321E-1,-4.61034E-1,4.2438287E-1,-3.2868886E-1,3.444461E-2,-5.1992273E-1,5.4792213E-1,-1.8235393E-1,3.0042875E-1,-4.337208E-1,3.438193E-1,-4.661088E-1,-9.7547257E-1,-6.834323E-1,-2.742326E-1,-9.9939245E-1,-6.2042916E-1,-1.2339255E-1,9.173646E-1,9.568487E-2,-3.08602E-2,-8.4239703E-1,-3.413843E-1,-8.120489E-1,2.819198E-1,-4.5605683E-1,-8.9017236E-1,3.4802225E-1,-1.74842E-1,2.979095E-1,5.3544205E-1,-4.8032635E-1,-1.1420139E0,-5.935227E-1,-9.101537E-1,1.2706065E-1,-8.486312E-1,1.130043E0,-4.8761004E-1,4.82468E-1,-1.5953737E-1,2.3499276E-1,-5.8762145E-1,-4.0225863E-2,3.1433412E-1,9.99618E-1,9.1476065E-1,-2.1589962E-1,2.2182174E-1,7.818446E-1,-6.211099E-1,2.5883433E-1,3.300822E-2,8.570635E-1,4.1215175E-1,-6.1651546E-1],"categories":[],"categories_nodes":[],"categories_segments":[],"categories_sizes":[],"default_left":[1,1,1,1,1,1,1,0,1,1,1,1,1,1,1,1,1,1,1,1,1,0,1,1,1,1,1,1,1,1,1,1,1,1,0,1,1,1,0,0,0,1,1,1,1,1,1,1,1,1,1,1,1,1,1,0,0,0,0,0,0,0,0,0,0,0,0,0,0,0,0,0,0,0,0,0,0,0,0,0,0,0,0,0,0,0,0,0,0,0,0,0,0,0,0,0,0,0,0],"id":4,"left_children":[1,3,5,7,9,11,13,-1,15,17,19,21,23,25,27,29,31,33,35,37,39,-1,41,43,45,47,49,51,53,55,57,59,61,63,-1,65,67,69,-1,-1,-1,71,73,75,77,79,81,83,85,87,89,91,93,95,97,-1,-1,-1,-1,-1,-1,-1,-1,-1,-1,-1,-1,-1,-1,-1,-1,-1,-1,-1,-1,-1,-1,-1,-1,-1,-1,-1,-1,-1,-1,-1,-1,-1,-1,-1,-1,-1,-1,-1,-1,-1,-1,-1,-1],"loss_changes":[1.0754288E2,1.0932846E1,2.2515379E1,4.7846985E0,4.444845E0,5.582718E0,1.1239639E1,0E0,4.4789314E0,2.5391598E0,2.3397064E-1,4.385986E0,5.620598E0,5.7730794E0,8.490101E0,2.7105865E0,2.167939E0,2.4461365E0,4.3107715E0,1.998272E-1,5.1669586E-1,0E0,4.338332E0,2.6499577E0,2.2188053E0,5.9185963E0,1.00083685E1,5.8431587E0,5.091961E0,4.4315338E-1,3.307539E0,6.468099E-2,4.704734E-1,6.817398E-1,0E0,1.7321539E0,2.5435786E0,1.7472192E0,0E0,0E0,0E0,2.660636E0,5.2895966E0,1.2129383E0,5.3207493E0,5.767074E0,2.1675544E0,1.1853826E0,1.879776E0,2.431437E0,2.6750126E0,7.0483284E0,1.6706042E0,1.6920394E0,4.0780272E0,0E0,0E0,0E0,0E0,0E0,0E0,0E0,0E0,0E0,0E0,0E0,0E0,0E0,0E0,0E0,0E0,0E0,0E0,0E0,0E0,0E0,0E0,0E0,0E0,0E0,0E0,0E0,0E0,0E0,0E0,0E0,0E0,0E0,0E0,0E0,0E0,0E0,0E0,0E0,0E0,0E0,0E0,0E0,0E0],"parents":[2147483647,0,0,1,1,2,2,3,3,4,4,5,5,6,6,8,8,9,9,10,10,11,11,12,12,13,13,14,14,15,15,16,16,17,17,18,18,19,19,20,20,22,22,23,23,24,24,25,25,26,26,27,27,28,28,29,29,30,30,31,31,32,32,33,33,35,35,36,36,37,37,41,41,42,42,43,43,44,44,45,45,46,46,47,47,48,48,49,49,50,50,51,51,52,52,53,53,54,54],"right_children":[2,4,6,8,10,12,14,-1,16,18,20,22,24,26,28,30,32,34,36,38,40,-1,42,44,46,48,50,52,54,56,58,60,62,64,-1,66,68,70,-1,-1,-1,72,74,76,78,80,82,84,86,88,90,92,94,96,98,-1,-1,-1,-1,-1,-1,-1,-1,-1,-1,-1,-1,-1,-1,-1,-1,-1,-1,-1,-1,-1,-1,-1,-1,-1,-1,-1,-1,-1,-1,-1,-1,-1,-1,-1,-1,-1,-1,-1,-1,-1,-1,-1,-1],"split_conditions":[5E-1,9.3675E1,5E-1,5E-1,7.15E1,1.75E1,5E-1,-3.2124203E-1,5.2915E3,5E-1,5E-1,1.9425E1,9.875E1,7.0725E1,5E-1,5E-1,5E-1,7.73E3,5E-1,1.04475006E2,1.05524994E2,-2.7426732E-1,5E-1,5E-1,2.914475E3,1.20675E2,1.05E1,4.9142246E3,5E-1,5E-1,3.2926E3,6.65E1,5.79755E3,2.743725E3,1.1093964E-1,5E-1,5E-1,1.01100006E2,-3.368013E-1,-2.0021771E-1,3.2986883E-2,3.8175E1,2.0025E1,5E-1,5E-1,5E-1,1.10274994E2,4.565E1,5E-1,5E-1,7.2025E1,9.5625E1,6.55E1,9.8375E1,8.0325E1,-2.926418E-1,-2.050297E-1,-8.226978E-2,-2.9981774E-1,-1.8612875E-1,-3.7017766E-2,2.752094E-1,2.8705463E-2,-9.258061E-3,-2.5271913E-1,-1.0241529E-1,-2.4361469E-1,8.457594E-2,-1.3681705E-1,-2.6705173E-1,1.0440668E-1,-5.24526E-2,8.937285E-2,1.6063263E-1,-1.4409791E-1,-3.426042E-1,-1.7805682E-1,-2.730461E-1,3.81182E-2,-2.5458938E-1,3.3901292E-1,-1.4628302E-1,1.447404E-1,-4.7861215E-2,7.049783E-2,-1.7628644E-1,-1.2067759E-2,9.430024E-2,2.9988542E-1,2.7442822E-1,-6.476989E-2,6.654652E-2,2.345534E-1,-1.8633297E-1,7.76503E-2,9.902467E-3,2.5711906E-1,1.2364553E-1,-1.8495464E-1],"split_indices":[33,7,24,34,4,4,38,0,8,6,34,7,7,7,3,29,0,8,18,7,7,0,0,38,8,8,4,8,21,24,8,4,8,8,0,3,1,7,0,0,0,7,8,37,11,18,7,7,1,36,7,7,4,7,8,0,0,0,0,0,0,0,0,0,0,0,0,0,0,0,0,0,0,0,0,0,0,0,0,0,0,0,0,0,0,0,0,0,0,0,0,0,0,0,0,0,0,0,0],"split_type":[0,0,0,0,0,0,0,0,0,0,0,0,0,0,0,0,0,0,0,0,0,0,0,0,0,0,0,0,0,0,0,0,0,0,0,0,0,0,0,0,0,0,0,0,0,0,0,0,0,0,0,0,0,0,0,0,0,0,0,0,0,0,0,0,0,0,0,0,0,0,0,0,0,0,0,0,0,0,0,0,0,0,0,0,0,0,0,0,0,0,0,0,0,0,0,0,0,0,0],"sum_hessian":[9.1710175E2,3.283237E2,5.887781E2,2.2733435E2,1.0098935E2,1.7311658E2,4.1566147E2,1.2023404E2,1.0710032E2,8.3417145E1,1.7572205E1,1.0650186E2,6.6614716E1,1.7745866E2,2.3820282E2,1.0231732E2,4.7829957E0,2.1428616E1,6.1988525E1,1.547141E1,2.1007938E0,8.07459E0,9.842728E1,4.827287E1,1.8341846E1,8.6118706E1,9.133996E1,2.0047047E2,3.7732346E1,7.26379E1,2.9679426E1,2.035994E0,2.7470016E0,2.0039915E1,1.388702E0,4.1446236E1,2.0542292E1,3.5096278E0,1.1961782E1,1.0508621E0,1.0499318E0,4.6038742E1,5.238853E1,2.9565884E1,1.8706984E1,4.3523345E0,1.39895115E1,2.8506733E1,5.761197E1,2.502248E1,6.6317474E1,1.8983638E2,1.0634084E1,9.78428E0,2.7948067E1,5.3413933E1,1.9223965E1,2.085106E1,8.828366E0,1.0238093E0,1.0121847E0,1.398776E0,1.3482255E0,1.1739755E0,1.8865938E1,3.0035841E1,1.1410396E1,1.4915806E1,5.626486E0,2.4611294E0,1.0484984E0,2.5184221E1,2.085452E1,4.9024305E0,4.74861E1,1.9640274E1,9.925611E0,1.029625E1,8.410734E0,1.4799293E0,2.8724053E0,1.2031233E1,1.9582783E0,1.4594533E1,1.3912199E1,5.0289696E1,7.3222766E0,1.7611067E1,7.411413E0,1.1882E0,6.512928E1,1.6444594E2,2.5390453E1,8.450688E0,2.1833954E0,6.7568007E0,3.0274794E0,3.8319776E0,2.4116089E1],"tree_param":{"num_deleted":"0","num_feature":"40","num_nodes":"99","size_leaf_vector":"0"}},{"base_weights":[-2.7391323E-1,-6.921406E-1,-6.735918E-2,-8.3285195E-1,-4.0551576E-1,-3.0713043E-1,3.4903523E-2,-9.0603095E-1,-4.9558228E-1,-5.355132E-1,-1.4775649E-1,-2.2572264E-1,-5.4732054E-1,2.1528704E-1,-8.225058E-2,-9.543289E-1,-5.503627E-1,-6.1195455E-2,-8.416063E-1,-6.1934847E-1,-7.623894E-2,8.4434396E-1,-2.2633153E-1,-2.9411763E-1,3.242839E-1,-6.8832403E-1,-1.19991146E-1,9.159595E-2,6.0269797E-1,-2.6753536E-1,7.5056866E-2,2.25707E-2,-6.5217733E-1,1.3008024E-1,-8.8896793E-1,-2.9096526E-1,-1.0067841E0,-1.2155926E-2,-6.8209606E-1,-6.55336E-1,1.7059143E-1,-5.12494E-1,3.9148357E-2,2.3258321E-1,-3.3668593E-1,-8.007184E-1,5.5027944E-1,-7.300819E-1,-7.215517E-3,-1.0089469E0,1.6142079E-1,3.1763837E-1,-7.6573335E-2,-4.5848706E-1,6.494773E-1,8.5588515E-1,-3.0030107E-1,1.9490065E-1,-3.0371004E-1,-6.614186E-1,5.190651E-1,-8.2085466E-1,-2.904958E-1,-2.369584E-1,6.3292146E-1,-6.4841837E-1,1.11086056E-1,-1.0498455E0,-2.0979276E-1,-6.2170106E-1,5.270012E-1,-8.16103E-1,-3.8437894E-1,-2.065583E-1,-7.613934E-1,4.7314897E-1,-7.0722675E-1,-7.430251E-1,-9.376513E-2,-2.6718166E-1,3.9385888E-1,2.607018E-2,8.144148E-1,-2.41628E-2,-4.2326593E-1,7.979275E-1,1.7215145E-3,-4.5487398E-1,-8.6346835E-1,8.1017077E-1,-4.5078662E-1,2.1867436E-1,9.454159E-1,-1.4716248E-1,6.923324E-1,6.821569E-1,-2.5122446E-1,6.742915E-2,1.2623852E0,-5.931876E-1,-1.7538221E-1,2.9054117E-1,-2.0393005E-1,-4.2385176E-1,7.806894E-1],"categories":[],"categories_nodes":[],"categories_segments":[],"categories_sizes":[],"default_left":[1,1,1,1,1,1,1,1,1,1,1,1,1,1,1,0,1,1,1,1,1,0,1,1,1,1,1,1,1,1,1,1,1,1,0,1,1,1,1,1,1,1,1,1,1,0,1,1,0,0,1,1,1,0,1,1,1,1,1,0,0,0,0,0,0,0,0,0,0,0,0,0,0,0,0,0,0,0,0,0,0,0,0,0,0,0,0,0,0,0,0,0,0,0,0,0,0,0,0,0,0,0,0,0,0],"id":5,"left_children":[1,3,5,7,9,11,13,15,17,19,21,23,25,27,29,-1,31,33,35,37,39,-1,41,43,45,47,49,51,53,55,57,59,61,63,-1,65,67,69,71,73,75,77,79,81,83,-1,85,87,-1,-1,89,91,93,-1,95,97,99,101,103,-1,-1,-1,-1,-1,-1,-1,-1,-1,-1,-1,-1,-1,-1,-1,-1,-1,-1,-1,-1,-1,-1,-1,-1,-1,-1,-1,-1,-1,-1,-1,-1,-1,-1,-1,-1,-1,-1,-1,-1,-1,-1,-1,-1,-1,-1],"loss_changes":[7.357732E1,1.10216675E1,1.4026399E1,4.1900787E0,3.09375E0,3.2201653E0,8.504707E0,2.1071854E0,5.317382E0,2.3616905E0,2.7734447E0,4.9638205E0,2.4833841E0,7.5355372E0,7.137664E0,0E0,1.2212801E0,2.7939663E0,1.5082483E0,2.0020828E0,1.655218E0,0E0,2.4119055E0,2.6708136E0,4.2007327E0,8.994274E-1,3.1089215E0,4.6334558E0,2.1919317E0,4.3924932E0,6.089698E0,1.7314608E0,8.350558E-1,2.8469958E0,0E0,9.3089235E-1,2.886095E-1,2.2864242E0,1.5935631E0,6.1489344E-3,2.5561032E0,1.3997772E0,1.9808058E0,1.0887539E0,2.895608E0,0E0,1.7521732E0,7.070818E-1,0E0,0E0,4.2602534E0,3.0188632E0,3.919203E0,0E0,1.2592602E0,1.0185776E0,3.9170208E0,3.9320095E0,4.541917E0,0E0,0E0,0E0,0E0,0E0,0E0,0E0,0E0,0E0,0E0,0E0,0E0,0E0,0E0,0E0,0E0,0E0,0E0,0E0,0E0,0E0,0E0,0E0,0E0,0E0,0E0,0E0,0E0,0E0,0E0,0E0,0E0,0E0,0E0,0E0,0E0,0E0,0E0,0E0,0E0,0E0,0E0,0E0,0E0,0E0,0E0],"parents":[2147483647,0,0,1,1,2,2,3,3,4,4,5,5,6,6,7,7,8,8,9,9,10,10,11,11,12,12,13,13,14,14,16,16,17,17,18,18,19,19,20,20,22,22,23,23,24,24,25,25,26,26,27,27,28,28,29,29,30,30,31,31,32,32,33,33,35,35,36,36,37,37,38,38,39,39,40,40,41,41,42,42,43,43,44,44,46,46,47,47,50,50,51,51,52,52,54,54,55,55,56,56,57,57,58,58],"right_children":[2,4,6,8,10,12,14,16,18,20,22,24,26,28,30,-1,32,34,36,38,40,-1,42,44,46,48,50,52,54,56,58,60,62,64,-1,66,68,70,72,74,76,78,80,82,84,-1,86,88,-1,-1,90,92,94,-1,96,98,100,102,104,-1,-1,-1,-1,-1,-1,-1,-1,-1,-1,-1,-1,-1,-1,-1,-1,-1,-1,-1,-1,-1,-1,-1,-1,-1,-1,-1,-1,-1,-1,-1,-1,-1,-1,-1,-1,-1,-1,-1,-1,-1,-1,-1,-1,-1,-1],"split_conditions":[5E-1,5E-1,5E-1,1.03475E2,9.995E1,2.95E1,7.5E0,5E-1,6.99475E3,5E-1,1.00175E2,8.9325E1,5E-1,5E-1,8.3275E1,-2.862987E-1,5E-1,1.11899994E2,5E-1,1.20425E3,8.95975E2,2.533032E-1,5E-1,5E-1,5E0,6.1671504E3,3.65E1,8.0899994E1,5.24E1,3.3259998E2,5E-1,5E-1,5E-1,1.0845E2,-2.666904E-1,5E-1,8.450225E3,5E-1,5E-1,4.6305E2,4.9E1,5E-1,6.8899E3,5E-1,2.4724998E1,-2.4021554E-1,1.00524994E2,5E-1,-2.1646551E-3,-3.0268407E-1,4.85E1,7.5575E1,4.9785E2,-1.3754612E-1,1.0425E2,2.9325E1,5E-1,5E-1,5E-1,-1.9842559E-1,1.5571953E-1,-2.4625641E-1,-8.714875E-2,-7.1087524E-2,1.8987645E-1,-1.9452552E-1,3.3325817E-2,-3.1495366E-1,-6.293783E-2,-1.8651032E-1,1.5810037E-1,-2.448309E-1,-1.1531369E-1,-6.1967492E-2,-2.2841804E-1,1.4194469E-1,-2.1216804E-1,-2.2290754E-1,-2.812954E-2,-8.01545E-2,1.1815767E-1,7.821054E-3,2.4432445E-1,-7.24884E-3,-1.2697978E-1,2.3937826E-1,5.164544E-4,-1.364622E-1,-2.590405E-1,2.4305125E-1,-1.35236E-1,6.560231E-2,2.836248E-1,-4.4148747E-2,2.0769973E-1,2.0464708E-1,-7.536734E-2,2.0228745E-2,3.787156E-1,-1.7795628E-1,-5.2614667E-2,8.716235E-2,-6.1179016E-2,-1.2715553E-1,2.3420684E-1],"split_indices":[33,15,15,7,7,4,4,38,8,39,7,7,1,11,7,0,5,7,2,8,8,0,0,5,4,8,4,8,8,8,9,2,18,7,0,0,8,21,38,8,4,38,8,37,8,0,7,6,0,0,4,8,8,0,7,7,6,3,39,0,0,0,0,0,0,0,0,0,0,0,0,0,0,0,0,0,0,0,0,0,0,0,0,0,0,0,0,0,0,0,0,0,0,0,0,0,0,0,0,0,0,0,0,0,0],"split_type":[0,0,0,0,0,0,0,0,0,0,0,0,0,0,0,0,0,0,0,0,0,0,0,0,0,0,0,0,0,0,0,0,0,0,0,0,0,0,0,0,0,0,0,0,0,0,0,0,0,0,0,0,0,0,0,0,0,0,0,0,0,0,0,0,0,0,0,0,0,0,0,0,0,0,0,0,0,0,0,0,0,0,0,0,0,0,0,0,0,0,0,0,0,0,0,0,0,0,0,0,0,0,0,0,0],"sum_hessian":[8.512617E2,2.8065173E2,5.7061E2,1.8696176E2,9.3689964E1,1.7000435E2,4.0060568E2,1.522426E2,3.4719154E1,6.1563614E1,3.2126354E1,1.2841899E2,4.1585354E1,1.5740688E2,2.431988E2,1.3255861E2,1.9683992E1,1.5915824E1,1.8803331E1,5.176582E1,9.797795E0,1.642478E0,3.0483877E1,1.14629684E2,1.3789305E1,3.0808792E1,1.077656E1,1.2025025E2,3.7156616E1,1.11347404E2,1.318514E2,3.087616E0,1.6596376E1,1.361307E1,2.3027546E0,4.976169E0,1.3827162E1,4.9602704E0,4.6805546E1,2.433492E0,7.364303E0,1.4222696E1,1.626118E1,8.237888E0,1.063918E2,1.8812748E0,1.190803E1,2.896131E1,1.8474833E0,1.9695673E0,8.806993E0,5.0919163E1,6.9331085E1,1.197201E0,3.5959415E1,2.4435997E0,1.089038E2,1.0052896E2,3.1322441E1,1.1588976E0,1.9287183E0,1.0452224E1,6.1441526E0,8.174802E0,5.4382677E0,2.3098063E0,2.6663628E0,1.281738E1,1.0097827E0,2.2563038E0,2.7039666E0,3.1076395E1,1.5729152E1,1.0286038E0,1.4048882E0,5.8194933E0,1.5448099E0,8.673194E0,5.5495024E0,8.858066E0,7.403115E0,6.851021E0,1.3868675E0,2.3357733E1,8.3034065E1,7.891016E0,4.017014E0,1.0894195E1,1.8067114E1,4.1188884E0,4.688104E0,4.514997E1,5.7691936E0,6.424198E1,5.0891066E0,3.4934544E1,1.0248704E0,1.2278717E0,1.215728E0,3.1440166E1,7.746364E1,8.1303665E1,1.9225292E1,2.87467E1,2.5757394E0],"tree_param":{"num_deleted":"0","num_feature":"40","num_nodes":"105","size_leaf_vector":"0"}},{"base_weights":[-2.1460617E-1,-5.926144E-1,-4.864323E-2,-8.1983835E-1,-3.8363943E-1,-2.6031673E-1,3.606612E-2,-9.278615E-1,-5.7816607E-1,-6.7808896E-1,-1.298534E-1,-1.4180979E-1,-4.5854825E-1,-1.785711E-1,1.12207554E-1,-9.562889E-1,-5.97448E-1,-3.7459236E-1,-9.4774246E-1,-8.161106E-1,-1.7949045E-1,-3.3071068E-1,7.2845705E-2,-1.9241975E-1,4.373518E-1,-7.822101E-1,-2.5802442E-1,-6.439599E-1,-4.3205722E-4,1.8664248E-1,-2.3010649E-1,1.15365416E-1,-8.3823115E-1,-6.23867E-1,8.4266014E-2,-1.0048527E0,-1.3539678E-1,-5.763736E-1,-9.284206E-1,-5.823711E-1,5.730968E-1,-8.511159E-1,-1.4578363E-1,-2.2959495E-1,2.546633E-1,-6.3799626E-1,-1.2949318E-1,-1.9652251E-2,8.5375696E-1,-2.7584755E-1,-8.355411E-1,3.1478932E-1,-3.8929796E-1,4.5922884E-1,-7.1489567E-1,-8.3424665E-2,6.58188E-1,5.085673E-3,3.240633E-1,-5.339E-1,1.1228204E-1,-1.754343E-1,3.520192E-1,8.279596E-2,-7.741985E-1,4.3365654E-1,-7.98226E-1,-1.0691444E0,-4.055413E-1,-7.4054694E-1,1.9052097E-1,-9.184777E-1,-2.3386046E-1,7.282822E-2,1.0939579E0,-1.9185327E-1,-1.0045514E0,2.3367379E-2,-5.987476E-1,-1.0124909E0,1.1174947E-1,-3.452127E-1,4.6465597E-1,-2.927684E-1,-7.7576596E-1,5.2438036E-2,-2.8621227E-1,7.21558E-1,-7.9678863E-1,1.2707863E0,2.7778882E-1,-5.9716797E-1,1.02990985E-1,-1.0548004E0,-5.75616E-1,6.232484E-1,-6.881617E-1,-8.03781E-1,-9.1076575E-2,-1.0234687E0,-4.3646097E-1,1.4205885E-1,-4.4719586E-1,-3.1527913E-1,8.89848E-1,4.510523E-1,-6.5026484E-2,2.9699838E-1,1.1943507E0,-9.2445993E-1,-2.147281E-1,3.2085705E-1,-1.0677519E0],"categories":[],"categories_nodes":[],"categories_segments":[],"categories_sizes":[],"default_left":[1,1,1,1,1,1,1,1,1,1,1,1,1,1,1,0,1,1,1,1,1,1,1,1,1,1,1,1,1,1,1,1,0,1,1,1,0,1,0,1,1,1,1,1,1,1,1,1,1,1,1,1,1,0,1,1,1,1,1,1,1,0,0,0,0,0,0,0,0,0,0,0,0,0,0,0,0,0,0,0,0,0,0,0,0,0,0,0,0,0,0,0,0,0,0,0,0,0,0,0,0,0,0,0,0,0,0,0,0,0,0,0,0],"id":6,"left_children":[1,3,5,7,9,11,13,15,17,19,21,23,25,27,29,-1,31,33,35,37,39,41,43,45,47,49,51,53,55,57,59,61,-1,63,65,67,-1,69,-1,71,73,75,77,79,81,83,85,87,89,91,93,95,97,-1,99,101,103,105,107,109,111,-1,-1,-1,-1,-1,-1,-1,-1,-1,-1,-1,-1,-1,-1,-1,-1,-1,-1,-1,-1,-1,-1,-1,-1,-1,-1,-1,-1,-1,-1,-1,-1,-1,-1,-1,-1,-1,-1,-1,-1,-1,-1,-1,-1,-1,-1,-1,-1,-1,-1,-1,-1],"loss_changes":[5.0003624E1,1.1234978E1,9.966088E0,2.4826508E0,9.5205E0,3.6661453E0,6.5156164E0,1.6382599E-1,2.5323486E0,3.9333878E0,2.8861055E0,3.0402331E0,3.6259308E0,8.660016E0,7.5340195E0,0E0,1.6183105E0,3.0722435E0,4.66012E-1,7.0747185E-1,4.619605E0,3.291283E0,2.027474E0,2.5373342E0,1.6172237E0,3.6549473E-1,2.973076E0,2.5911446E0,4.238945E0,6.037136E0,5.5684156E0,2.7630222E-1,0E0,1.8940535E0,3.4832196E0,2.7605057E-2,0E0,2.3267832E0,0E0,9.2174196E-1,1.3359035E0,7.275748E-1,2.1126773E0,3.8464255E0,3.0372117E0,3.107357E-1,2.3852844E0,3.4476156E0,7.093868E-1,4.992082E-1,5.02655E-1,2.7865176E0,3.794186E0,0E0,1.9211988E0,5.712316E0,2.2376904E0,3.321508E0,2.889841E0,3.3210716E0,6.6738796E0,0E0,0E0,0E0,0E0,0E0,0E0,0E0,0E0,0E0,0E0,0E0,0E0,0E0,0E0,0E0,0E0,0E0,0E0,0E0,0E0,0E0,0E0,0E0,0E0,0E0,0E0,0E0,0E0,0E0,0E0,0E0,0E0,0E0,0E0,0E0,0E0,0E0,0E0,0E0,0E0,0E0,0E0,0E0,0E0,0E0,0E0,0E0,0E0,0E0,0E0,0E0,0E0],"parents":[2147483647,0,0,1,1,2,2,3,3,4,4,5,5,6,6,7,7,8,8,9,9,10,10,11,11,12,12,13,13,14,14,16,16,17,17,18,18,19,19,20,20,21,21,22,22,23,23,24,24,25,25,26,26,27,27,28,28,29,29,30,30,31,31,33,33,34,34,35,35,37,37,39,39,40,40,41,41,42,42,43,43,44,44,45,45,46,46,47,47,48,48,49,49,50,50,51,51,52,52,54,54,55,55,56,56,57,57,58,58,59,59,60,60],"right_children":[2,4,6,8,10,12,14,16,18,20,22,24,26,28,30,-1,32,34,36,38,40,42,44,46,48,50,52,54,56,58,60,62,-1,64,66,68,-1,70,-1,72,74,76,78,80,82,84,86,88,90,92,94,96,98,-1,100,102,104,106,108,110,112,-1,-1,-1,-1,-1,-1,-1,-1,-1,-1,-1,-1,-1,-1,-1,-1,-1,-1,-1,-1,-1,-1,-1,-1,-1,-1,-1,-1,-1,-1,-1,-1,-1,-1,-1,-1,-1,-1,-1,-1,-1,-1,-1,-1,-1,-1,-1,-1,-1,-1,-1,-1],"split_conditions":[5E-1,5E-1,5E-1,9.355E1,5E-1,1.75E1,5E-1,5E-1,1.10025E2,5E-1,5E-1,5E-1,7.8399994E1,5E-1,3.273675E3,-2.8688666E-1,5E-1,1.05925E2,5E-1,2.55E1,8.245E1,8.0175E1,5E-1,1.9575E1,9.5E0,1.975E1,8.5524994E1,5.5975E1,3.85E1,7.3175E1,9.5575E1,5E-1,-2.5146934E-1,9.63E1,7.15E1,1.16175E2,-4.0619034E-2,5E-1,-2.785262E-1,5E-1,5E-1,1.17205E3,5E-1,3.85E1,5E-1,1.9475E1,5E-1,3.5E0,7.115E1,1.9375E1,5E-1,5E-1,9.7850006E1,1.3776866E-1,8.06375E2,9.5E0,5.5175003E1,5E-1,3.16995E3,3.956725E3,1.05725006E2,-5.2630294E-2,1.0560576E-1,2.483879E-2,-2.3225956E-1,1.3009697E-1,-2.3946781E-1,-3.2074332E-1,-1.2166239E-1,-2.221641E-1,5.7156295E-2,-2.7554333E-1,-7.015814E-2,2.1848466E-2,3.2818738E-1,-5.7555985E-2,-3.0136544E-1,7.010214E-3,-1.7962429E-1,-3.0374727E-1,3.352484E-2,-1.03563815E-1,1.393968E-1,-8.783052E-2,-2.327298E-1,1.5731411E-2,-8.586368E-2,2.164674E-1,-2.390366E-1,3.812359E-1,8.333665E-2,-1.791504E-1,3.0897297E-2,-3.1644014E-1,-1.726848E-1,1.8697453E-1,-2.0644851E-1,-2.411343E-1,-2.7322974E-2,-3.0704063E-1,-1.3093829E-1,4.2617656E-2,-1.3415876E-1,-9.458374E-2,2.6695442E-1,1.353157E-1,-1.9507946E-2,8.909952E-2,3.5830522E-1,-2.77338E-1,-6.4418435E-2,9.625712E-2,-3.2032558E-1],"split_indices":[33,34,24,7,32,4,6,38,7,38,0,1,7,18,8,0,5,7,18,4,7,7,15,7,4,7,7,8,4,7,7,15,0,7,4,7,0,36,0,0,3,8,36,4,6,8,0,4,7,7,27,36,7,0,8,4,7,21,8,8,7,0,0,0,0,0,0,0,0,0,0,0,0,0,0,0,0,0,0,0,0,0,0,0,0,0,0,0,0,0,0,0,0,0,0,0,0,0,0,0,0,0,0,0,0,0,0,0,0,0,0,0,0],"split_type":[0,0,0,0,0,0,0,0,0,0,0,0,0,0,0,0,0,0,0,0,0,0,0,0,0,0,0,0,0,0,0,0,0,0,0,0,0,0,0,0,0,0,0,0,0,0,0,0,0,0,0,0,0,0,0,0,0,0,0,0,0,0,0,0,0,0,0,0,0,0,0,0,0,0,0,0,0,0,0,0,0,0,0,0,0,0,0,0,0,0,0,0,0,0,0,0,0,0,0,0,0,0,0,0,0,0,0,0,0,0,0,0,0],"sum_hessian":[7.9651587E2,2.4222874E2,5.542872E2,1.1464698E2,1.2758177E2,1.5782863E2,3.9645853E2,7.726954E1,3.7377438E1,5.8285473E1,6.9296295E1,9.9851E1,5.7977627E1,1.0346183E2,2.929967E2,6.94041E1,7.8654466E0,2.5399956E1,1.1977484E1,4.5150215E1,1.3135256E1,3.448907E1,3.4807224E1,9.2440834E1,7.4101677E0,2.1069267E1,3.690836E1,2.7916075E1,7.554575E1,2.4103851E2,5.1958183E1,2.1175463E0,5.7479E0,1.6225729E1,9.174227E0,1.0969333E1,1.0081515E0,1.6360039E1,2.8790178E1,8.702659E0,4.4325976E0,8.09799E0,2.6391083E1,1.2969914E1,2.183731E1,1.030852E1,8.213231E1,3.9871175E0,3.4230502E0,2.5957487E0,1.8473518E1,6.620734E0,3.0287626E1,1.3558662E0,2.6560207E1,6.786716E1,7.6785955E0,1.04290115E2,1.367484E2,2.7234386E1,2.4723795E1,1.0661505E0,1.0513959E0,2.9250762E0,1.33006525E1,6.936552E0,2.2376747E0,9.198589E0,1.7707431E0,1.3503602E1,2.8564355E0,3.5976336E0,5.105025E0,2.8423982E0,1.5901996E0,1.9537495E0,6.144241E0,1.9905977E1,6.4851055E0,3.3409774E0,9.628937E0,5.4952803E0,1.634203E1,3.8317788E0,6.476742E0,3.8316757E1,4.3815556E1,2.0773337E0,1.9097838E0,1.2857533E0,2.137297E0,1.0926664E0,1.5030823E0,8.361825E0,1.0111693E1,5.352997E0,1.267737E0,1.1964088E1,1.8323538E1,1.1329065E1,1.5231143E1,4.227345E1,2.5593708E1,1.4066604E0,6.271935E0,1.3430244E1,9.085987E1,1.3392476E2,2.8236372E0,1.1394676E1,1.5839711E1,2.1628906E1,3.0948875E0],"tree_param":{"num_deleted":"0","num_feature":"40","num_nodes":"113","size_leaf_vector":"0"}},{"base_weights":[-1.7056103E-1,-8.826973E-2,-7.3681647E-1,-2.6825717E-1,9.7528944E-4,-8.593284E-1,-4.9304605E-1,-4.4745147E-1,-1.9621047E-1,1.830731E-1,-7.565378E-2,-8.9351976E-1,-5.10634E-1,-3.3287156E-1,-9.749871E-1,-7.358196E-1,-1.326479E-1,-1.255006E-1,-4.141185E-1,8.865011E-2,4.5892426E-1,-3.5301292E-1,7.4781734E-3,-9.187889E-1,-4.3643534E-1,9.497596E-2,-7.544897E-1,-4.2586175E-1,6.5266895E-1,-8.266094E-1,-3.8721097E-1,6.84772E-1,-2.5610137E-1,-2.2255E-1,1.12758756E-1,-7.617914E-1,-2.8426975E-1,1.4268348E-1,-3.677883E-1,-7.8655444E-2,5.9090483E-1,-4.9986087E-2,-5.3030056E-1,1.7379536E-1,-7.946089E-2,-3.3610588E-1,-9.3325585E-1,-7.79693E-1,3.3893412E-1,-1.6614042E-1,3.1303933E-1,-8.5550076E-1,-2.705429E-1,-6.3109624E-1,-4.7940318E-2,-2.6004082E-1,-8.8257736E-1,7.706467E-3,-8.362391E-1,9.2374265E-1,1.3447587E-1,-4.2058808E-1,1.0955058E-1,-2.6904112E-1,4.3670037E-1,9.6617496E-1,1.7854871E-2,-6.925546E-2,-1.0209937E0,2.8394717E-1,-4.9300334E-1,3.8994724E-1,6.3104006E-3,-1.0221983E0,-4.427171E-2,-5.503583E-1,5.5503935E-1,7.532398E-1,7.4784435E-2,1.6095486E-1,-7.722417E-1,-1.0339543E0,-4.4725692E-1,7.039763E-2,7.964438E-1,-8.1517905E-1,-4.2442914E-2,-1.5555614E-1,-8.8869923E-1,-3.860071E-1,6.5607893E-1],"categories":[],"categories_nodes":[],"categories_segments":[],"categories_sizes":[],"default_left":[1,1,1,1,1,1,1,1,1,1,1,1,1,1,0,1,1,1,1,1,1,1,1,1,1,1,1,1,0,1,1,1,1,1,1,1,1,1,1,1,1,1,1,1,1,0,0,0,0,0,0,0,0,1,1,0,0,0,0,0,0,0,0,0,0,0,0,0,0,0,0,0,0,0,0,0,0,0,0,0,0,0,0,0,0,0,0,0,0,0,0],"id":7,"left_children":[1,3,5,7,9,11,13,15,17,19,21,23,25,27,-1,29,31,33,35,37,39,41,43,45,47,49,51,53,-1,55,57,59,61,63,65,67,69,71,73,75,77,79,81,83,85,-1,-1,-1,-1,-1,-1,-1,-1,87,89,-1,-1,-1,-1,-1,-1,-1,-1,-1,-1,-1,-1,-1,-1,-1,-1,-1,-1,-1,-1,-1,-1,-1,-1,-1,-1,-1,-1,-1,-1,-1,-1,-1,-1,-1,-1],"loss_changes":[3.518235E1,1.0627109E1,2.4386177E0,2.7434702E0,6.199262E0,2.8816605E-1,2.3311691E0,5.5403986E0,2.3855357E0,3.386529E0,7.2125163E0,2.4038696E-1,1.2397344E0,2.7834923E0,0E0,6.9888496E-1,3.2948327E0,2.8200293E0,1.5134935E0,2.500643E0,2.4101424E0,3.8485231E0,3.5066726E0,1.2226868E-1,1.5454822E0,2.3186743E-1,4.9666643E-2,1.9543734E0,0E0,5.5249023E-1,1.5196525E0,4.4496298E-1,1.7051148E0,2.760211E0,2.869995E0,1.6930056E0,3.6384807E0,3.0147614E0,2.2384267E0,2.5321887E0,2.1945496E0,4.348714E0,1.4365149E0,5.302865E0,4.3045564E0,0E0,0E0,0E0,0E0,0E0,0E0,0E0,0E0,1.8830237E0,2.6541073E0,0E0,0E0,0E0,0E0,0E0,0E0,0E0,0E0,0E0,0E0,0E0,0E0,0E0,0E0,0E0,0E0,0E0,0E0,0E0,0E0,0E0,0E0,0E0,0E0,0E0,0E0,0E0,0E0,0E0,0E0,0E0,0E0,0E0,0E0,0E0,0E0],"parents":[2147483647,0,0,1,1,2,2,3,3,4,4,5,5,6,6,7,7,8,8,9,9,10,10,11,11,12,12,13,13,15,15,16,16,17,17,18,18,19,19,20,20,21,21,22,22,23,23,24,24,25,25,26,26,27,27,29,29,30,30,31,31,32,32,33,33,34,34,35,35,36,36,37,37,38,38,39,39,40,40,41,41,42,42,43,43,44,44,53,53,54,54],"right_children":[2,4,6,8,10,12,14,16,18,20,22,24,26,28,-1,30,32,34,36,38,40,42,44,46,48,50,52,54,-1,56,58,60,62,64,66,68,70,72,74,76,78,80,82,84,86,-1,-1,-1,-1,-1,-1,-1,-1,88,90,-1,-1,-1,-1,-1,-1,-1,-1,-1,-1,-1,-1,-1,-1,-1,-1,-1,-1,-1,-1,-1,-1,-1,-1,-1,-1,-1,-1,-1,-1,-1,-1,-1,-1,-1,-1],"split_conditions":[5E-1,5E-1,9.355E1,5E-1,3.527E2,5E-1,7.759775E3,3.0091E3,2.95E1,7.4775E1,6.9975E1,5E-1,5E-1,7.689875E3,-2.9249614E-1,5E-1,3.577525E3,6.2630005E2,3.65E1,5E-1,5E-1,4.9125E1,1.5879E3,1.9375E1,5E-1,3.469375E3,5E-1,5E-1,1.9580069E-1,8.5E0,5E-1,5E-1,5E-1,5E-1,5.0225E1,6.4475006E1,4.25E1,5E-1,5E-1,8.55E1,8.92E1,5E-1,5.0225E1,1.361875E3,1.746675E3,-1.0083177E-1,-2.7997676E-1,-2.3390791E-1,1.0168024E-1,-4.984213E-2,9.3911804E-2,-2.5665024E-1,-8.116287E-2,5E-1,1.078E2,-7.801225E-2,-2.6477322E-1,2.3119403E-3,-2.5087175E-1,2.771228E-1,4.0342763E-2,-1.2617643E-1,3.2865174E-2,-8.071234E-2,1.3101012E-1,2.898525E-1,5.3564617E-3,-2.0776637E-2,-3.0629814E-1,8.518416E-2,-1.4790101E-1,1.1698417E-1,1.8931202E-3,-3.0665952E-1,-1.3281514E-2,-1.6510749E-1,1.665118E-1,2.2597195E-1,2.2435332E-2,4.828646E-2,-2.3167253E-1,-3.101863E-1,-1.3417709E-1,2.111929E-2,2.3893316E-1,-2.4455373E-1,-1.2732875E-2,-4.6666846E-2,-2.666098E-1,-1.1580213E-1,1.9682369E-1],"split_indices":[35,15,7,33,8,38,8,8,4,7,7,1,5,8,0,36,8,8,4,37,18,7,8,7,30,8,18,36,0,4,6,21,37,1,7,7,4,9,5,7,7,3,7,8,8,0,0,0,0,0,0,0,0,2,7,0,0,0,0,0,0,0,0,0,0,0,0,0,0,0,0,0,0,0,0,0,0,0,0,0,0,0,0,0,0,0,0,0,0,0,0],"split_type":[0,0,0,0,0,0,0,0,0,0,0,0,0,0,0,0,0,0,0,0,0,0,0,0,0,0,0,0,0,0,0,0,0,0,0,0,0,0,0,0,0,0,0,0,0,0,0,0,0,0,0,0,0,0,0,0,0,0,0,0,0,0,0,0,0,0,0,0,0,0,0,0,0,0,0,0,0,0,0,0,0,0,0,0,0,0,0,0,0,0,0],"sum_hessian":[7.5541595E2,6.605737E2,9.484225E1,2.183017E2,4.42272E2,6.143942E1,3.3402824E1,6.1106716E1,1.5719498E2,1.3057957E2,3.1169244E2,5.4529987E1,6.9094305E0,2.6339504E1,7.063321E0,3.119443E1,2.9912285E1,1.1987286E2,3.7322113E1,9.826511E1,3.2314476E1,7.112997E1,2.4056247E2,5.071612E1,3.813865E0,2.1587493E0,4.7506814E0,2.4587458E1,1.7520475E0,2.3661095E1,7.533335E0,3.328245E0,2.6584042E1,8.5224556E1,3.4648308E1,8.825331E0,2.849678E1,8.847839E1,9.78671E0,6.44932E0,2.5865154E1,2.6727776E1,4.440219E1,8.223852E1,1.5832394E2,1.8157563E0,4.8900368E1,2.6396916E0,1.1741731E0,1.0907537E0,1.0679958E0,3.2951484E0,1.4555329E0,1.550006E1,9.087398E0,2.6348217E0,2.1026274E1,4.5310993E0,3.002236E0,1.8473777E0,1.4808673E0,1.8232155E1,8.351886E0,8.016325E1,5.061307E0,2.548705E0,3.20996E1,2.7486587E0,6.076672E0,7.5590677E0,2.0937712E1,3.0790829E1,5.7687565E1,2.5231767E0,7.263533E0,3.7726123E0,2.6767077E0,1.9326864E1,6.538291E0,2.1287676E1,5.440099E0,4.664089E0,3.9738102E1,7.148131E1,1.0757208E1,6.5774984E0,1.5174644E2,6.0097694E0,9.490291E0,6.444492E0,2.6429057E0],"tree_param":{"num_deleted":"0","num_feature":"40","num_nodes":"91","size_leaf_vector":"0"}},{"base_weights":[-1.3267066E-1,-6.707042E-2,-6.5478873E-1,-1.6931519E-1,4.7086615E-2,-7.923914E-1,-4.0975073E-1,-5.468642E-2,-2.762898E-1,-9.061216E-2,1.23243235E-1,-8.312074E-1,-4.4441226E-1,-2.2073409E-1,-8.1667465E-1,-1.1783172E-1,4.3466514E-1,-4.5772752E-1,-7.797574E-2,-8.049128E-3,-3.665174E-1,1.3853145E-1,-9.439239E-1,-8.896899E-1,-5.114813E-1,7.866212E-2,-6.866593E-1,-4.7491708E-1,1.4189427E-1,-2.7517527E-1,-9.6016043E-1,-1.5330707E-1,5.012177E-1,5.457294E-1,-6.553895E-1,-3.3310083E-1,-7.623915E-1,5.8677214E-1,-1.2004602E-1,-2.576602E-1,1.2093236E-1,-1.02614656E-1,-5.988919E-1,2.4995925E-1,1.071417E-2,-6.7578226E-1,-1.0078728E0,-8.764655E-1,7.854746E-2,-1.4528838E-1,2.6971427E-1,-7.9410917E-1,-2.3140882E-1,-5.613317E-2,-6.9106174E-1,-5.1305354E-1,3.8644615E-1,-6.476583E-1,2.1382E-1,-8.137207E-2,-4.8472047E-1,1.284578E0,-5.7195574E-1,7.566875E-1,-2.4834683E-3,-6.987516E-1,-1.7209065E-1,1.9509843E-1,-8.4997284E-1,1.1692873E-2,7.922963E-1,-2.3734991E-1,9.161614E-2,-1.387117E-1,-1.3903838E0,4.1778904E-1,-8.033354E-2,-4.640048E-1,2.788858E-1,5.5433642E-2,-1.0375788E0,4.468359E-1,1.8782256E-2,-2.6528332E-1,1.6324866E-1,-8.258459E-1,4.4312045E-2,4.8639742E-1,-5.734057E-1,-6.4922637E-1,2.4304871E-1,-9.479056E-1,-2.268139E-1,-1.4951998E-1,-6.213147E-1,1.0948272E0,-2.8287798E-2],"categories":[],"categories_nodes":[],"categories_segments":[],"categories_sizes":[],"default_left":[1,1,1,1,1,1,1,1,1,1,1,1,1,1,1,1,1,1,1,1,1,1,0,1,1,1,1,1,1,1,0,1,1,1,0,1,1,1,1,1,1,1,1,1,1,1,0,0,1,0,0,0,0,1,1,1,1,0,0,0,0,0,0,0,0,0,0,0,0,0,0,0,0,0,0,0,0,0,0,0,0,0,0,0,0,0,0,0,0,0,0,0,0,0,0,0,0],"id":8,"left_children":[1,3,5,7,9,11,13,15,17,19,21,23,25,27,29,31,33,35,37,39,41,43,-1,45,47,49,51,53,55,57,-1,59,61,63,-1,65,67,69,71,73,75,77,79,81,83,85,-1,-1,87,-1,-1,-1,-1,89,91,93,95,-1,-1,-1,-1,-1,-1,-1,-1,-1,-1,-1,-1,-1,-1,-1,-1,-1,-1,-1,-1,-1,-1,-1,-1,-1,-1,-1,-1,-1,-1,-1,-1,-1,-1,-1,-1,-1,-1,-1,-1],"loss_changes":[2.4735462E1,7.522674E0,2.394249E0,4.1522617E0,3.2093375E0,3.136425E-1,2.2094355E0,5.159116E0,6.2808037E0,2.4841614E0,3.3414578E0,3.7411308E-1,9.693457E-1,2.1491644E0,4.7266722E-1,3.309431E0,2.670737E0,3.2190647E0,2.4497547E0,2.769594E0,1.4792838E0,2.7729607E0,0E0,2.3240852E-1,2.0521076E0,1.7540558E-1,6.277299E-2,1.1839352E0,1.8123156E0,7.556454E-1,0E0,3.2978218E0,7.63867E0,2.070261E0,0E0,3.8060746E0,2.3275557E0,6.093286E-1,2.0290217E0,3.7545304E0,3.4248035E0,1.9177123E0,3.8331585E0,4.7283354E0,3.9085243E0,1.7541695E0,0E0,0E0,1.4588006E0,0E0,0E0,0E0,0E0,1.1668913E0,8.3683825E-1,3.183621E-2,2.3542047E0,0E0,0E0,0E0,0E0,0E0,0E0,0E0,0E0,0E0,0E0,0E0,0E0,0E0,0E0,0E0,0E0,0E0,0E0,0E0,0E0,0E0,0E0,0E0,0E0,0E0,0E0,0E0,0E0,0E0,0E0,0E0,0E0,0E0,0E0,0E0,0E0,0E0,0E0,0E0,0E0],"parents":[2147483647,0,0,1,1,2,2,3,3,4,4,5,5,6,6,7,7,8,8,9,9,10,10,11,11,12,12,13,13,14,14,15,15,16,16,17,17,18,18,19,19,20,20,21,21,23,23,24,24,25,25,26,26,27,27,28,28,29,29,31,31,32,32,33,33,35,35,36,36,37,37,38,38,39,39,40,40,41,41,42,42,43,43,44,44,45,45,48,48,53,53,54,54,55,55,56,56],"right_children":[2,4,6,8,10,12,14,16,18,20,22,24,26,28,30,32,34,36,38,40,42,44,-1,46,48,50,52,54,56,58,-1,60,62,64,-1,66,68,70,72,74,76,78,80,82,84,86,-1,-1,88,-1,-1,-1,-1,90,92,94,96,-1,-1,-1,-1,-1,-1,-1,-1,-1,-1,-1,-1,-1,-1,-1,-1,-1,-1,-1,-1,-1,-1,-1,-1,-1,-1,-1,-1,-1,-1,-1,-1,-1,-1,-1,-1,-1,-1,-1,-1],"split_conditions":[5E-1,5E-1,9.355E1,1.65E1,5E-1,5E-1,1.10025E2,8.3850006E1,5E-1,5E-1,6.45575E3,5E-1,5E-1,5E-1,6.75E1,1.45E1,1.434475E3,5E-1,1.5262E3,1.058075E3,5E-1,5E-1,-2.8317717E-1,1.32775E3,5E-1,5E-1,5.2654E3,5E-1,5E-1,5E-1,-2.8804815E-1,9.5E0,5E-1,5E-1,-1.9661686E-1,5E-1,1.75E1,5E-1,1.02075E2,9.6745E2,2.7481E3,3.85E1,1.8734751E3,5E-1,5E-1,5E-1,-3.0236185E-1,-2.6293966E-1,5E-1,-4.3586515E-2,8.091428E-2,-2.3823276E-1,-6.942265E-2,5E-1,6.9515254E3,5E-1,6.5913E3,-1.9429749E-1,6.4146005E-2,-2.441162E-2,-1.4541614E-1,3.853734E-1,-1.7158672E-1,2.2700627E-1,-7.4504054E-4,-2.096255E-1,-5.1627196E-2,5.852953E-2,-2.5499186E-1,3.507862E-3,2.376889E-1,-7.1204975E-2,2.7484844E-2,-4.161351E-2,-4.1711518E-1,1.2533672E-1,-2.4100063E-2,-1.3920145E-1,8.366574E-2,1.6630093E-2,-3.1127366E-1,1.3405077E-1,5.634677E-3,-7.9585E-2,4.89746E-2,-2.4775378E-1,1.3293614E-2,1.4591923E-1,-1.7202172E-1,-1.9476792E-1,7.2914615E-2,-2.843717E-1,-6.804417E-2,-4.4855997E-2,-1.8639442E-1,3.2844818E-1,-8.48634E-3],"split_indices":[35,38,7,4,18,38,7,7,32,3,8,30,5,36,4,4,8,39,8,8,21,9,0,8,37,24,8,2,2,37,0,4,2,37,0,33,4,15,7,8,8,4,8,30,30,11,0,0,24,0,0,0,0,6,8,24,8,0,0,0,0,0,0,0,0,0,0,0,0,0,0,0,0,0,0,0,0,0,0,0,0,0,0,0,0,0,0,0,0,0,0,0,0,0,0,0,0],"split_type":[0,0,0,0,0,0,0,0,0,0,0,0,0,0,0,0,0,0,0,0,0,0,0,0,0,0,0,0,0,0,0,0,0,0,0,0,0,0,0,0,0,0,0,0,0,0,0,0,0,0,0,0,0,0,0,0,0,0,0,0,0,0,0,0,0,0,0,0,0,0,0,0,0,0,0,0,0,0,0,0,0,0,0,0,0,0,0,0,0,0,0,0,0,0,0,0,0],"sum_hessian":[7.224629E2,6.428252E2,7.9637726E1,3.3885046E2,3.039747E2,4.9568485E1,3.0069244E1,1.6430281E2,1.7454767E2,1.08181656E2,1.9579305E2,4.3344833E1,6.22365E0,2.1585297E1,8.483949E0,1.4619695E2,1.810586E1,9.04692E1,8.407847E1,8.40572E1,2.4124453E1,1.9388562E2,1.9074142E0,3.51354E1,8.209437E0,2.1837173E0,4.0399327E0,1.25081215E1,9.077174E0,2.3883543E0,6.095594E0,1.3898462E2,7.2123237E0,1.6884842E1,1.2210184E0,6.569085E1,2.4778349E1,4.233766E0,7.98447E1,2.829729E1,5.5759907E1,1.1970923E1,1.2153529E1,1.0307335E2,9.081228E1,1.4894637E1,2.024076E1,4.7720475E0,3.4373894E0,1.1155775E0,1.0681398E0,2.66629E0,1.3736424E0,4.686891E0,7.8212304E0,2.1693597E0,6.9078145E0,1.1715106E0,1.2168437E0,1.1522086E2,2.3763756E1,4.055229E0,3.1570947E0,1.191828E1,4.966562E0,1.906189E1,4.6628963E1,1.9736489E0,2.28047E1,1.3929714E0,2.8407946E0,5.1295307E1,2.8549397E1,2.6623941E1,1.6733497E0,2.2095055E1,3.3664856E1,6.0364323E0,5.9344916E0,5.2285285E0,6.925E0,5.5162544E1,4.7910805E1,3.2061214E1,5.8751064E1,1.2204441E1,2.6901958E0,2.2707732E0,1.1666161E0,1.1792198E0,3.5076714E0,4.3646755E0,3.456555E0,1.0441798E0,1.1251798E0,1.9453144E0,4.9625E0],"tree_param":{"num_deleted":"0","num_feature":"40","num_nodes":"97","size_leaf_vector":"0"}},{"base_weights":[-1.0465777E-1,-5.1664684E-2,-5.8304685E-1,-1.8005218E-1,8.844668E-3,-7.2708577E-1,-3.5266125E-1,1.3618241E-1,-2.195272E-1,1.8736022E-2,-8.8192993E-1,-7.696174E-1,-3.8712665E-1,-1.16603784E-1,-6.6660005E-1,-1.0887584E-1,5.5895936E-1,-8.031907E-1,-1.8513894E-1,-1.3426629E-1,7.393433E-2,-1.0080812E0,-2.0605825E-1,-8.0503434E-1,-2.59431E-1,6.585071E-2,-6.235037E-1,-3.828192E-1,5.197911E-1,-2.9998386E-1,-9.346389E-1,-2.7935654E-1,4.6239126E-1,-2.6505297E-1,9.294766E-1,-8.7151074E-1,-1.3826175E-1,3.853947E-1,-2.0887552E-1,-3.5751888E-1,-3.2611653E-2,3.1283218E-1,3.0549027E-2,-1.7016166E-1,-8.260419E-1,4.0677962E-1,-6.715262E-1,-1.5814067E-1,2.4667732E-1,-7.5087374E-1,-1.457527E-1,-6.786051E-1,1.6437636E-1,4.4315197E-2,1.0350382E0,-8.8097703E-1,5.242862E-2,-7.414508E-1,-8.2615085E-2,1.5976211E-1,6.415212E-1,-3.4423807E-1,-5.1672243E-2,1.3801701E0,2.4800569E-1,9.8012435E-1,-2.17065E-1,-5.4231566E-1,-1.4965424E-1,-6.5457076E-1,-2.9707143E-2,-1.0700751E-1,3.026005E-1,1.5881038E-1,1.1294124E0,-7.9032254E-1,4.987929E-2,-6.4203984E-1,-9.313195E-1,5.1211167E-2,-9.6359754E-1,-1.8626283E-1,8.368929E-1,-6.918514E-1,6.56524E-1,3.752638E-1,-6.1056554E-1],"categories":[],"categories_nodes":[],"categories_segments":[],"categories_sizes":[],"default_left":[1,1,1,1,1,1,1,1,1,1,1,1,1,1,1,1,1,1,1,1,1,0,0,1,1,1,1,1,1,1,0,1,1,1,1,0,0,1,1,1,1,1,1,0,1,0,0,0,0,0,0,1,1,1,0,0,1,0,0,0,0,0,0,0,0,0,0,0,0,0,0,0,0,0,0,0,0,0,0,0,0,0,0,0,0,0,0],"id":9,"left_children":[1,3,5,7,9,11,13,15,17,19,21,23,25,27,29,31,33,35,37,39,41,-1,-1,43,45,47,49,51,53,55,-1,57,59,61,63,-1,-1,65,67,69,71,73,75,-1,77,-1,-1,-1,-1,-1,-1,79,81,83,-1,-1,85,-1,-1,-1,-1,-1,-1,-1,-1,-1,-1,-1,-1,-1,-1,-1,-1,-1,-1,-1,-1,-1,-1,-1,-1,-1,-1,-1,-1,-1,-1],"loss_changes":[1.7691183E1,4.8990564E0,2.053711E0,2.5513792E0,3.8001885E0,3.0778503E-1,2.0508099E0,2.4471693E0,3.4631996E0,3.6050775E0,1.9615269E-1,4.4565582E-1,7.552832E-1,3.181884E0,9.1018534E-1,1.630733E0,2.876546E0,3.207488E-1,2.3995428E0,2.5577013E0,3.2395096E0,0E0,0E0,3.0483627E-1,1.3237782E0,1.6828659E-1,1.6309142E-1,2.213962E0,1.3302377E0,1.3953881E0,0E0,1.0749562E0,1.10025406E-1,4.0509507E-2,1.5510559E0,0E0,0E0,2.789393E0,3.178049E0,3.420042E0,1.999846E0,5.866605E0,4.2666364E0,0E0,2.3220062E-2,0E0,0E0,0E0,0E0,0E0,0E0,1.8436632E0,1.4204953E0,2.241642E0,0E0,0E0,1.309039E0,0E0,0E0,0E0,0E0,0E0,0E0,0E0,0E0,0E0,0E0,0E0,0E0,0E0,0E0,0E0,0E0,0E0,0E0,0E0,0E0,0E0,0E0,0E0,0E0,0E0,0E0,0E0,0E0,0E0,0E0],"parents":[2147483647,0,0,1,1,2,2,3,3,4,4,5,5,6,6,7,7,8,8,9,9,10,10,11,11,12,12,13,13,14,14,15,15,16,16,17,17,18,18,19,19,20,20,23,23,24,24,25,25,26,26,27,27,28,28,29,29,31,31,32,32,33,33,34,34,37,37,38,38,39,39,40,40,41,41,42,42,44,44,51,51,52,52,53,53,56,56],"right_children":[2,4,6,8,10,12,14,16,18,20,22,24,26,28,30,32,34,36,38,40,42,-1,-1,44,46,48,50,52,54,56,-1,58,60,62,64,-1,-1,66,68,70,72,74,76,-1,78,-1,-1,-1,-1,-1,-1,80,82,84,-1,-1,86,-1,-1,-1,-1,-1,-1,-1,-1,-1,-1,-1,-1,-1,-1,-1,-1,-1,-1,-1,-1,-1,-1,-1,-1,-1,-1,-1,-1,-1,-1],"split_conditions":[5E-1,5E-1,9.355E1,2.4724998E1,7.05E1,5E-1,1.088E2,5E-1,1.9625E1,5E-1,7.533125E3,5E-1,5E-1,1.05925E2,6.85E1,5E-1,1.9575E1,5E-1,1.9875E1,5E-1,1.084E2,-3.0242437E-1,-6.181748E-2,1.9375E1,6.65E1,5E-1,5E-1,6.95E1,5E-1,1.09375E2,-2.803917E-1,5E-1,1.9875E1,1.9425E1,5E-1,-2.6145324E-1,-4.1478526E-2,5E-1,2.1E1,5E-1,5E-1,9.0225E1,3.0275002E1,-5.1048502E-2,5.65E1,1.2203389E-1,-2.0145787E-1,-4.7442205E-2,7.40032E-2,-2.2526214E-1,-4.372581E-2,5.01435E3,5E-1,5E-1,3.1051147E-1,-2.6429313E-1,5E-1,-2.2243525E-1,-2.4784526E-2,4.7928635E-2,1.9245638E-1,-1.03271425E-1,-1.5501673E-2,4.1405106E-1,7.440171E-2,2.940373E-1,-6.5119505E-2,-1.6269471E-1,-4.4896275E-2,-1.9637124E-1,-8.912143E-3,-3.2102253E-2,9.0780154E-2,4.7643114E-2,3.3882374E-1,-2.3709677E-1,1.4963788E-2,-1.9261196E-1,-2.7939585E-1,1.53633505E-2,-2.8907928E-1,-5.587885E-2,2.5106788E-1,-2.0755543E-1,1.9695722E-1,1.12579145E-1,-1.8316966E-1],"split_indices":[35,24,7,8,4,38,7,6,7,6,8,1,5,7,4,3,7,38,7,18,8,0,0,7,4,15,18,4,18,7,0,39,7,7,0,0,0,0,7,2,1,8,7,0,4,0,0,0,0,0,0,8,21,15,0,0,3,0,0,0,0,0,0,0,0,0,0,0,0,0,0,0,0,0,0,0,0,0,0,0,0,0,0,0,0,0,0],"split_type":[0,0,0,0,0,0,0,0,0,0,0,0,0,0,0,0,0,0,0,0,0,0,0,0,0,0,0,0,0,0,0,0,0,0,0,0,0,0,0,0,0,0,0,0,0,0,0,0,0,0,0,0,0,0,0,0,0,0,0,0,0,0,0,0,0,0,0,0,0,0,0,0,0,0,0,0,0,0,0,0,0,0,0,0,0,0,0],"sum_hessian":[6.98029E2,6.2941425E2,6.861475E1,2.009875E2,4.2842676E2,4.0892498E1,2.772226E1,2.2032797E1,1.7895471E2,4.2468988E2,3.736881E0,3.5222076E1,5.6704216E0,1.6606722E1,1.1115538E1,1.4418017E1,7.6147795E0,8.713083E0,1.7024162E2,1.1221434E2,3.1247552E2,2.7348876E0,1.0019933E0,3.2395287E1,2.826788E0,2.1917372E0,3.4786842E0,1.198968E1,4.617042E0,5.589523E0,5.526015E0,1.1497775E1,2.920242E0,2.4502294E0,5.16455E0,7.6195126E0,1.0935712E0,6.191285E0,1.6405034E2,3.4321316E1,7.789303E1,4.707117E1,2.6540436E2,1.3290771E0,3.106621E1,1.0852406E0,1.7415473E0,1.0350586E0,1.1566786E0,2.2951143E0,1.1835699E0,7.626847E0,4.3628335E0,2.9659953E0,1.6510465E0,1.54408E0,4.045443E0,2.606689E0,8.891087E0,1.7892652E0,1.1309768E0,1.339782E0,1.1104475E0,2.4915035E0,2.6730464E0,2.8001711E0,3.391114E0,2.3511803E1,1.4053853E2,1.7482489E1,1.6838827E1,6.430268E1,1.3590343E1,4.060653E1,6.4646435E0,5.188449E0,2.602159E2,1.3889304E1,1.7176905E1,2.372245E0,5.2546015E0,3.3429236E0,1.01991E0,1.2875983E0,1.6783972E0,3.0125248E0,1.0329181E0],"tree_param":{"num_deleted":"0","num_feature":"40","num_nodes":"87","size_leaf_vector":"0"}},{"base_weights":[-8.051346E-2,-3.8333625E-2,-5.106633E-1,2.1098766E-2,-1.24004215E-1,-7.0733047E-1,-3.3497548E-1,-2.5144152E-2,2.455392E-1,-4.0478104E-1,-4.046028E-2,-5.574445E-1,-9.673527E-1,-1.3843866E-1,-7.7769846E-1,-1.566607E-1,2.8889284E-2,8.358508E-1,1.5329868E-1,-7.127118E-2,-5.345653E-1,3.853089E-1,-9.782654E-2,-7.0644855E-1,4.774854E-1,7.922686E-1,-2.3964082E-1,-9.255698E-1,-2.5283596E-1,-1.8876554E-1,5.3184384E-1,4.1081047E-1,-1.3635249E-2,3.3006555E-1,1.0815315E0,-1.2579936E-2,4.72168E-1,4.2276713E-1,-4.8450387E-1,-6.1109024E-1,2.9445457E-1,8.757052E-1,4.3537472E-3,-5.9341353E-1,-3.188572E-2,-5.108096E-1,-9.094126E-1,-7.2147794E-2,7.7961767E-1,-5.55511E-1,3.922551E-2,-6.492913E-1,3.305823E-1,-1.3745534E-1,-8.721515E-1,8.8012564E-1,7.727378E-2,6.4276373E-1,-3.920633E-1,-1.152362E0,9.024237E-3,7.1469945E-1,-2.4192376E-2,1.0601938E-1,-9.552004E-1,1.0494715E0,5.9969448E-2,1.6341791E0,-1.5908843E-1,1.8839702E-1,-7.435655E-1,-7.565687E-1,-1.550539E-1,-4.9225134E-1,9.534135E-1,1.0911047E0,6.230877E-2,-8.41339E-1,2.50367E-1,-2.660708E-1,-8.868621E-1,3.5627645E-1,-1.1354201E-1,-7.2639555E-1,4.1953206E-1,-1.8063788E-1,-9.345487E-1,-5.036358E-1,6.4983946E-1],"categories":[],"categories_nodes":[],"categories_segments":[],"categories_sizes":[],"default_left":[1,1,1,1,1,1,1,1,1,1,1,1,0,1,1,1,1,1,1,1,1,1,1,1,1,0,1,0,1,1,1,1,1,1,0,1,1,1,1,1,1,1,1,1,1,1,0,0,0,1,1,0,0,0,0,0,0,0,0,0,0,0,0,0,0,0,0,0,0,0,0,0,0,0,0,0,0,0,0,0,0,0,0,0,0,0,0,0,0],"id":10,"left_children":[1,3,5,7,9,11,13,15,17,19,21,23,-1,25,27,29,31,33,35,37,39,41,43,45,47,-1,49,-1,51,53,55,57,59,61,-1,63,65,67,69,71,73,75,77,79,81,83,-1,-1,-1,85,87,-1,-1,-1,-1,-1,-1,-1,-1,-1,-1,-1,-1,-1,-1,-1,-1,-1,-1,-1,-1,-1,-1,-1,-1,-1,-1,-1,-1,-1,-1,-1,-1,-1,-1,-1,-1,-1,-1],"loss_changes":[1.2328754E1,3.163947E0,1.8602448E0,3.8197112E0,5.9524107E0,5.418339E-1,2.8470428E0,2.1760032E0,3.294895E0,2.4827366E0,4.8546395E0,3.4146733E0,0E0,2.5195599E0,5.59453E-1,2.0707757E0,3.5369034E0,6.7079115E-1,2.946496E0,3.7710814E0,2.8298836E0,4.4087286E0,5.6867785E0,2.4414635E-1,5.724062E-1,0E0,2.0544686E0,0E0,1.0526496E0,2.8924103E0,6.022074E-1,4.314815E0,5.0836444E0,5.818559E-1,0E0,4.2984576E0,4.470251E0,6.244563E0,1.8795054E0,2.4412737E0,2.6490796E0,1.7403755E0,3.1853561E0,1.7280612E0,4.958066E0,2.5850625E0,0E0,0E0,0E0,1.3780103E0,4.699494E0,0E0,0E0,0E0,0E0,0E0,0E0,0E0,0E0,0E0,0E0,0E0,0E0,0E0,0E0,0E0,0E0,0E0,0E0,0E0,0E0,0E0,0E0,0E0,0E0,0E0,0E0,0E0,0E0,0E0,0E0,0E0,0E0,0E0,0E0,0E0,0E0,0E0,0E0],"parents":[2147483647,0,0,1,1,2,2,3,3,4,4,5,5,6,6,7,7,8,8,9,9,10,10,11,11,13,13,14,14,15,15,16,16,17,17,18,18,19,19,20,20,21,21,22,22,23,23,24,24,26,26,28,28,29,29,30,30,31,31,32,32,33,33,35,35,36,36,37,37,38,38,39,39,40,40,41,41,42,42,43,43,44,44,45,45,49,49,50,50],"right_children":[2,4,6,8,10,12,14,16,18,20,22,24,-1,26,28,30,32,34,36,38,40,42,44,46,48,-1,50,-1,52,54,56,58,60,62,-1,64,66,68,70,72,74,76,78,80,82,84,-1,-1,-1,86,88,-1,-1,-1,-1,-1,-1,-1,-1,-1,-1,-1,-1,-1,-1,-1,-1,-1,-1,-1,-1,-1,-1,-1,-1,-1,-1,-1,-1,-1,-1,-1,-1,-1,-1,-1,-1,-1,-1],"split_conditions":[5E-1,2.25E1,4.4801E3,5E-1,2.2735752E3,5.4475E1,7.15E1,4.4824997E1,4.3800003E1,5E-1,2.588325E3,4.7725E1,-2.902058E-1,4.78275E3,5E-1,5E-1,4.9225E1,5E-1,9.11425E2,5E-1,8.9625E1,5E-1,7.5175E1,5.95E1,5E-1,2.3768058E-1,5E-1,-2.7767095E-1,1.02350006E2,4.4425003E1,2.5E0,5E-1,5.025E1,1.5E0,3.2445946E-1,1.05E1,1.258825E3,3.4875E1,5E-1,5E-1,2.35E1,5E-1,5E-1,3.3153E3,8.5525E1,5.25E1,-2.728238E-1,-2.1644339E-2,2.338853E-1,6.6130254E3,6.852E3,-1.947874E-1,9.917469E-2,-4.1236605E-2,-2.6164547E-1,2.640377E-1,2.3182135E-2,1.9282913E-1,-1.1761899E-1,-3.457086E-1,2.7072714E-3,2.1440984E-1,-7.257713E-3,3.1805813E-2,-2.8656012E-1,3.1484145E-1,1.7990835E-2,4.9025375E-1,-4.772653E-2,5.651911E-2,-2.2306965E-1,-2.2697061E-1,-4.6516173E-2,-1.4767541E-1,2.8602406E-1,3.2733142E-1,1.8692631E-2,-2.524017E-1,7.51101E-2,-7.9821244E-2,-2.6605865E-1,1.0688294E-1,-3.4062605E-2,-2.1791868E-1,1.2585962E-1,-5.4191366E-2,-2.803646E-1,-1.5109076E-1,1.9495185E-1],"split_indices":[35,4,8,1,8,7,4,7,7,5,8,7,0,8,24,32,7,18,8,0,7,18,7,4,15,0,0,0,7,7,4,2,8,4,0,4,8,7,15,36,4,36,15,8,7,4,0,0,0,8,8,0,0,0,0,0,0,0,0,0,0,0,0,0,0,0,0,0,0,0,0,0,0,0,0,0,0,0,0,0,0,0,0,0,0,0,0,0,0],"split_type":[0,0,0,0,0,0,0,0,0,0,0,0,0,0,0,0,0,0,0,0,0,0,0,0,0,0,0,0,0,0,0,0,0,0,0,0,0,0,0,0,0,0,0,0,0,0,0,0,0,0,0,0,0,0,0,0,0,0,0,0,0,0,0,0,0,0,0,0,0,0,0,0,0,0,0,0,0,0,0,0,0,0,0,0,0,0,0,0,0],"sum_hessian":[6.795868E2,6.1989044E2,5.9696396E1,3.6643594E2,2.5345445E2,2.6738699E1,3.29577E1,3.0457117E2,6.18648E1,5.723897E1,1.9621548E2,1.8955765E1,7.7829337E0,2.3734158E1,9.223541E0,8.814012E1,2.1643103E2,7.2709937E0,5.4593807E1,1.6468533E1,4.077044E1,2.2619343E1,1.7359615E2,1.6847534E1,2.1082294E0,1.6579767E0,2.2076181E1,6.6005063E0,2.6230352E0,8.490677E1,3.2333534E0,2.0816189E1,1.9561484E2,3.1433089E0,4.1276846E0,3.65439E1,1.8049908E1,7.4903765E0,8.978155E0,3.7565712E1,3.2047288E0,9.321388E0,1.3297955E1,1.944623E1,1.5414992E2,1.0369258E1,6.4782767E0,1.0178255E0,1.0904039E0,9.886157E0,1.2190023E1,1.4945333E0,1.128502E0,8.0094246E1,4.812522E0,1.300651E0,1.9327024E0,1.6305027E1,4.5111628E0,2.843868E0,1.9277098E2,1.0192298E0,2.1240792E0,3.324818E1,3.2957172E0,6.8750467E0,1.1174862E1,1.8435584E0,5.6468177E0,2.5715199E0,6.4066358E0,2.7980688E1,9.585022E0,1.5760862E0,1.6286428E0,7.099829E0,2.2215586E0,2.4513443E0,1.084661E1,1.009355E1,9.35268E0,2.6207335E1,1.2794257E2,8.596441E0,1.7728168E0,5.7127466E0,4.1734104E0,6.5457635E0,5.64426E0],"tree_param":{"num_deleted":"0","num_feature":"40","num_nodes":"89","size_leaf_vector":"0"}},{"base_weights":[-6.1672427E-2,-2.8182872E-2,-4.4033206E-1,1.4717604E-1,-5.5761274E-2,-6.352116E-1,-2.8193393E-1,1.84508E-2,3.2262024E-1,-3.3882293E-1,-2.9981088E-2,-4.824651E-1,-9.19684E-1,2.575796E-1,-4.0707386E-1,-9.4785154E-2,5.6533724E-1,6.424103E-1,1.4054269E-1,-4.3041807E-1,8.064767E-2,-2.2283666E-2,-6.489429E-1,-6.365776E-1,3.782568E-1,-8.703304E-2,7.9594964E-1,-8.6605513E-1,-2.5813004E-1,2.8779464E-2,-7.4979603E-1,-3.4044605E-1,7.746277E-1,-3.1154495E-1,8.854128E-1,-1.8251458E-1,4.6178806E-1,-2.8743792E-1,-6.244914E-1,4.684636E-1,-6.5278125E-1,-3.5823595E-2,3.329144E-1,-9.527201E-1,-1.5091163E-2,-4.3390468E-1,-8.6744446E-1,6.914493E-1,-1.4202976E-1,-5.300843E-1,6.3630515E-1,-1.2522289E-1,-7.873925E-1,1.111135E-1,-9.8616034E-1,-6.3173056E-2,-1.3065213E0,5.5545475E-2,1.1170437E0,-3.700292E-1,-1.0586618E-1,-1.8542567E-1,1.1040689E0,-6.542707E-1,3.294594E-2,6.4806193E-1,-6.4935696E-1,-3.8341132E-1,8.829228E-1,-7.5921494E-1,4.0657897E-2,-5.666647E-1,7.9520756E-1,-1.5684709E-2,-4.6689683E-1,-5.80742E-1,5.337456E-1,-6.570263E-1,3.0969894E-1,-1.2786065E-1,-6.6432756E-1,-2.4292202E-1,6.375574E-1],"categories":[],"categories_nodes":[],"categories_segments":[],"categories_sizes":[],"default_left":[1,1,1,1,1,1,1,1,1,1,1,1,0,1,1,1,1,1,1,1,1,1,1,1,1,1,0,0,1,1,1,0,1,1,1,1,1,1,1,1,0,1,1,0,0,1,0,0,0,1,0,1,0,0,0,0,0,0,0,0,0,0,0,0,0,0,0,0,0,0,0,0,0,0,0,0,0,0,0,0,0,0,0],"id":11,"left_children":[1,3,5,7,9,11,13,15,17,19,21,23,-1,25,27,29,31,33,35,37,39,41,43,45,47,49,-1,-1,51,53,55,-1,57,59,61,63,65,67,69,71,-1,73,75,-1,-1,77,-1,-1,-1,79,-1,81,-1,-1,-1,-1,-1,-1,-1,-1,-1,-1,-1,-1,-1,-1,-1,-1,-1,-1,-1,-1,-1,-1,-1,-1,-1,-1,-1,-1,-1,-1,-1],"loss_changes":[8.412693E0,2.9653182E0,1.4852352E0,1.8768917E0,3.8508394E0,5.720358E-1,2.2342758E0,3.097214E0,1.9605641E0,1.7278829E0,2.3011622E0,2.537334E0,0E0,1.2846358E0,1.5531392E0,3.3864253E0,1.8891857E0,3.1731577E0,2.5463152E0,8.2855177E-1,2.7918537E0,2.3256633E0,1.1282928E0,3.2811928E-1,6.288413E-1,1.9062054E0,0E0,0E0,1.381867E0,3.1127903E0,2.4537678E0,0E0,1.7281041E0,2.4676323E-4,2.5980015E0,1.296698E0,2.9414642E0,2.8961582E0,1.3354096E0,2.58121E0,0E0,4.023665E0,3.5692468E0,0E0,0E0,1.8657299E0,0E0,0E0,0E0,1.08446E-1,0E0,1.7719007E0,0E0,0E0,0E0,0E0,0E0,0E0,0E0,0E0,0E0,0E0,0E0,0E0,0E0,0E0,0E0,0E0,0E0,0E0,0E0,0E0,0E0,0E0,0E0,0E0,0E0,0E0,0E0,0E0,0E0,0E0,0E0],"parents":[2147483647,0,0,1,1,2,2,3,3,4,4,5,5,6,6,7,7,8,8,9,9,10,10,11,11,13,13,14,14,15,15,16,16,17,17,18,18,19,19,20,20,21,21,22,22,23,23,24,24,25,25,28,28,29,29,30,30,32,32,33,33,34,34,35,35,36,36,37,37,38,38,39,39,41,41,42,42,45,45,49,49,51,51],"right_children":[2,4,6,8,10,12,14,16,18,20,22,24,-1,26,28,30,32,34,36,38,40,42,44,46,48,50,-1,-1,52,54,56,-1,58,60,62,64,66,68,70,72,-1,74,76,-1,-1,78,-1,-1,-1,80,-1,82,-1,-1,-1,-1,-1,-1,-1,-1,-1,-1,-1,-1,-1,-1,-1,-1,-1,-1,-1,-1,-1,-1,-1,-1,-1,-1,-1,-1,-1,-1,-1],"split_conditions":[5E-1,1.5E0,4.4801E3,5.025E1,2.5275E1,5.4475E1,5.30105E3,5E-1,6.9925E1,5E-1,7.05E1,4.7725E1,-2.7590522E-1,5E-1,9.355E1,4.5824997E1,1.9825E1,5E-1,7.565E1,1.15E1,5E-1,6.55E1,7.5462E3,5.95E1,5E-1,4.988075E3,2.387849E-1,-2.5981656E-1,7.759775E3,5E-1,5E-1,-1.0213382E-1,5E-1,5.24E1,5E-1,5E-1,5E-1,1.05E1,2.4025002E1,1.9625E1,-1.9583438E-1,5.95E1,5.223325E3,-2.8581604E-1,-4.527349E-3,5.25E1,-2.6023334E-1,2.0743479E-1,-4.260893E-2,5E-1,1.9089155E-1,7.689875E3,-2.3621775E-1,3.3334054E-2,-2.958481E-1,-1.8951917E-2,-3.9195642E-1,1.6663643E-2,3.3511314E-1,-1.1100877E-1,-3.1759854E-2,-5.5627704E-2,3.312207E-1,-1.9628122E-1,9.883782E-3,1.944186E-1,-1.948071E-1,-1.150234E-1,2.6487687E-1,-2.2776449E-1,1.219737E-2,-1.6999942E-1,2.3856227E-1,-4.705413E-3,-1.4006905E-1,-1.742226E-1,1.6012368E-1,-1.971079E-1,9.2909686E-2,-3.8358197E-2,-1.9929828E-1,-7.287661E-2,1.9126722E-1],"split_indices":[35,4,8,7,7,7,8,2,7,36,4,7,0,30,7,7,7,15,7,4,6,4,8,4,6,8,0,0,8,37,38,0,3,7,27,6,3,4,7,7,0,4,8,0,0,4,0,0,0,0,0,8,0,0,0,0,0,0,0,0,0,0,0,0,0,0,0,0,0,0,0,0,0,0,0,0,0,0,0,0,0,0,0],"split_type":[0,0,0,0,0,0,0,0,0,0,0,0,0,0,0,0,0,0,0,0,0,0,0,0,0,0,0,0,0,0,0,0,0,0,0,0,0,0,0,0,0,0,0,0,0,0,0,0,0,0,0,0,0,0,0,0,0,0,0,0,0,0,0,0,0,0,0,0,0,0,0,0,0,0,0,0,0,0,0,0,0,0,0],"sum_hessian":[6.633804E2,6.1046387E2,5.2916447E1,8.237037E1,5.280935E2,2.2376316E1,3.0540129E1,4.8148487E1,3.422188E1,4.3068344E1,4.8502518E2,1.6313068E1,6.0632486E0,5.5507874E0,2.4989342E1,4.0574074E1,7.5744114E0,1.1498458E1,2.2723423E1,3.532805E1,7.740294E0,4.8009076E2,4.934417E0,1.4056637E1,2.2564313E0,3.8955631E0,1.6552243E0,4.9428725E0,2.0046469E1,3.4939056E1,5.6350203E0,1.3040359E0,6.2703753E0,2.2771158E0,9.221342E0,1.154508E1,1.1178343E1,2.1770264E1,1.3557786E1,5.299396E0,2.4408977E0,4.6332812E2,1.6762634E1,2.9956627E0,1.938754E0,9.018741E0,5.0378966E0,1.2031835E0,1.0532479E0,2.5815248E0,1.3140382E0,1.7011244E1,3.0352256E0,3.31411E1,1.7979536E0,3.0217247E0,2.6132953E0,2.3975914E0,3.8727841E0,1.1508193E0,1.1262964E0,1.5894079E0,7.6319337E0,2.981154E0,8.563926E0,9.930365E0,1.247978E0,2.074177E1,1.0284941E0,1.1156631E1,2.401155E0,1.0952753E0,4.204121E0,4.436386E2,1.9689528E1,2.6797502E0,1.4082883E1,7.026759E0,1.9919813E0,1.1345643E0,1.4469606E0,1.5327671E1,1.6835718E0],"tree_param":{"num_deleted":"0","num_feature":"40","num_nodes":"83","size_leaf_vector":"0"}},{"base_weights":[-4.861563E-2,-2.2552788E-2,-3.71042E-1,-8.230337E-2,4.142168E-2,-5.9055996E-1,-2.1354327E-1,-9.313993E-2,4.8552662E-1,1.18138835E-1,-6.0534846E-2,-2.3311538E-1,-7.352309E-1,-6.625117E-2,-6.5590376E-1,-7.2695434E-2,-8.0293655E-1,9.915399E-1,1.6542771E-1,-8.477013E-2,1.6718246E-1,3.1622534E-3,-2.830512E-1,-5.241142E-1,5.71597E-1,-8.749294E-1,-1.9732687E-1,-3.002091E-1,2.3146419E-1,-8.4547544E-1,-1.15258664E-1,-9.8647036E-2,4.3799758E-1,-2.195373E-1,-1.0926206E0,-3.7812364E-1,4.301212E-1,-2.5172552E-1,6.1163515E-1,2.2870241E-1,-1.6109194E-1,-5.570423E-2,8.2233226E-1,-9.180929E-1,-8.6910374E-2,4.15056E-1,-8.313177E-1,-9.26611E-1,-1.9436318E-1,2.8776982E-1,-6.46045E-1,5.5918205E-1,-4.5525017E-1,-3.379692E-1,6.4085305E-1,4.174102E-1,-5.74435E-1,-2.5061306E-2,-2.4029899E-1,5.4043263E-1,-3.4330752E-1,-9.238335E-1,5.3065556E-1,-9.74814E-2,8.505476E-1,8.5673735E-2,-5.009343E-1,1.626526E0,-6.708838E-2,-7.8670196E-2,2.9367122E-1,-7.233097E-3,-8.000873E-1,1.0727128E-2,-1.1574483E0,1.404541E-1,1.0758277E0,-1.1632407E0,8.460176E-3,4.6157476E-1,-3.5059673E-1,-7.6810867E-1,-3.8987216E-2,3.8204008E-1,-6.2425905E-1,8.5752606E-1,-2.300827E-1],"categories":[],"categories_nodes":[],"categories_segments":[],"categories_sizes":[],"default_left":[1,1,1,1,1,1,1,1,1,1,1,1,1,1,1,1,1,0,1,1,1,1,1,1,0,1,1,1,1,0,1,1,1,1,0,0,1,1,1,1,1,1,1,1,1,0,0,0,0,0,0,0,1,1,1,0,0,0,0,0,0,0,0,0,0,0,0,0,0,0,0,0,0,0,0,0,0,0,0,0,0,0,0,0,0,0,0],"id":12,"left_children":[1,3,5,7,9,11,13,15,17,19,21,23,25,27,29,31,33,-1,35,37,39,41,43,45,-1,47,49,51,53,-1,55,57,59,61,-1,-1,63,65,67,69,71,73,75,77,79,-1,-1,-1,-1,-1,-1,-1,81,83,85,-1,-1,-1,-1,-1,-1,-1,-1,-1,-1,-1,-1,-1,-1,-1,-1,-1,-1,-1,-1,-1,-1,-1,-1,-1,-1,-1,-1,-1,-1,-1,-1],"loss_changes":[5.4798517E0,2.3172512E0,1.5603762E0,1.973227E0,2.2988849E0,8.5307837E-1,1.9091569E0,4.4154863E0,8.124453E-1,1.6813188E0,1.7933434E0,1.979126E0,8.522353E-1,1.7129213E0,6.58272E-1,4.029361E0,1.2020259E0,0E0,8.6660135E-1,4.0226603E0,2.7683802E0,4.8345957E0,3.4272046E0,2.0153115E0,0E0,1.904726E-1,1.0790359E0,2.0729573E0,2.7686076E0,0E0,9.9117315E-1,2.9859388E0,1.36431E0,2.6471388E0,0E0,0E0,9.165809E-1,2.3592129E0,4.7421923E0,2.306065E0,2.150618E0,6.862042E0,1.0107045E0,1.4952497E0,3.4327452E0,0E0,0E0,0E0,0E0,0E0,0E0,0E0,1.5475209E0,1.3172524E0,1.464267E0,0E0,0E0,0E0,0E0,0E0,0E0,0E0,0E0,0E0,0E0,0E0,0E0,0E0,0E0,0E0,0E0,0E0,0E0,0E0,0E0,0E0,0E0,0E0,0E0,0E0,0E0,0E0,0E0,0E0,0E0,0E0,0E0],"parents":[2147483647,0,0,1,1,2,2,3,3,4,4,5,5,6,6,7,7,8,8,9,9,10,10,11,11,12,12,13,13,14,14,15,15,16,16,18,18,19,19,20,20,21,21,22,22,23,23,25,25,26,26,27,27,28,28,30,30,31,31,32,32,33,33,36,36,37,37,38,38,39,39,40,40,41,41,42,42,43,43,44,44,52,52,53,53,54,54],"right_children":[2,4,6,8,10,12,14,16,18,20,22,24,26,28,30,32,34,-1,36,38,40,42,44,46,-1,48,50,52,54,-1,56,58,60,62,-1,-1,64,66,68,70,72,74,76,78,80,-1,-1,-1,-1,-1,-1,-1,82,84,86,-1,-1,-1,-1,-1,-1,-1,-1,-1,-1,-1,-1,-1,-1,-1,-1,-1,-1,-1,-1,-1,-1,-1,-1,-1,-1,-1,-1,-1,-1,-1,-1],"split_conditions":[5E-1,5E-1,5E-1,1.10675E2,5E-1,5E-1,7.15E1,1.0625E2,1.11525E2,5E-1,1.6314751E3,5E-1,5E-1,6.55E1,5E-1,1.03675E2,4.85E1,2.97462E-1,1.13524994E2,4.75E1,5E-1,1.390225E3,2.11985E3,1.9775E1,1.714791E-1,1.05075E2,5.44E1,2.5175E1,5E-1,-2.5364265E-1,1.04475006E2,2.55E1,7.2752E3,4.2E1,-3.277862E-1,-1.13437094E-1,6.65E1,5E-1,5.35E1,5E-1,1.04675E2,1.206525E3,5E-1,5E-1,2.5859502E3,1.245168E-1,-2.4939533E-1,-2.779833E-1,-5.8308955E-2,8.633095E-2,-1.9381352E-1,1.6775462E-1,1.045E2,5E-1,1.10025E2,1.2522307E-1,-1.723305E-1,-7.518392E-3,-7.20897E-2,1.6212979E-1,-1.0299226E-1,-2.7715006E-1,1.5919667E-1,-2.9244421E-2,2.551643E-1,2.570212E-2,-1.502803E-1,4.879578E-1,-2.0126514E-2,-2.360106E-2,8.810137E-2,-2.1699292E-3,-2.4002619E-1,3.2181386E-3,-3.472345E-1,4.213623E-2,3.2274833E-1,-3.489722E-1,2.5380529E-3,1.3847244E-1,-1.0517902E-1,-2.3043261E-1,-1.1696165E-2,1.1461203E-1,-1.8727772E-1,2.5725782E-1,-6.9024816E-2],"split_indices":[35,38,11,7,9,2,4,7,7,6,8,30,38,4,15,7,4,0,7,4,3,8,8,7,0,7,7,7,0,0,7,4,8,4,0,0,4,0,4,15,7,8,24,3,8,0,0,0,0,0,0,0,7,29,7,0,0,0,0,0,0,0,0,0,0,0,0,0,0,0,0,0,0,0,0,0,0,0,0,0,0,0,0,0,0,0,0],"split_type":[0,0,0,0,0,0,0,0,0,0,0,0,0,0,0,0,0,0,0,0,0,0,0,0,0,0,0,0,0,0,0,0,0,0,0,0,0,0,0,0,0,0,0,0,0,0,0,0,0,0,0,0,0,0,0,0,0,0,0,0,0,0,0,0,0,0,0,0,0,0,0,0,0,0,0,0,0,0,0,0,0,0,0,0,0,0,0],"sum_hessian":[6.520992E2,6.043198E2,4.7779324E1,3.123273E2,2.9199252E2,1.8811163E1,2.8968159E1,3.0729874E2,5.0285707E0,1.6652905E2,1.25463455E2,6.1723166E0,1.2638846E1,2.2594627E1,6.3735313E0,2.9976688E2,7.5318623E0,1.1356797E0,3.8928907E0,3.227378E1,1.3425528E2,9.830783E1,2.7155622E1,4.7891617E0,1.3831553E0,9.535769E0,3.1030767E0,1.264738E1,9.947248E0,4.301446E0,2.0720856E0,2.8603827E2,1.3728609E1,3.0822735E0,4.449589E0,1.1345482E0,2.7583425E0,2.6547781E1,5.7259984E0,1.1332166E2,2.0933617E1,9.2586464E1,5.7213683E0,5.5395465E0,2.1616076E1,1.0938892E0,3.6952722E0,8.526728E0,1.0090419E0,1.663451E0,1.4396257E0,1.5345749E0,1.1112804E1,4.233365E0,5.713883E0,1.0013849E0,1.0707008E0,1.890217E2,9.701657E1,1.2409875E1,1.318734E0,1.4703851E0,1.6118883E0,1.5639026E0,1.1944399E0,1.1557079E1,1.4990702E1,1.7350866E0,3.990912E0,1.9736385E1,9.358528E1,1.7686369E1,3.2472477E0,8.825524E1,4.3312225E0,1.971715E0,3.7496536E0,4.1785374E0,1.361009E0,6.7744017E0,1.4841674E1,5.8618536E0,5.2509513E0,1.1092318E0,3.124133E0,4.587895E0,1.1259884E0],"tree_param":{"num_deleted":"0","num_feature":"40","num_nodes":"87","size_leaf_vector":"0"}},{"base_weights":[-3.8180724E-2,-1.7251814E-2,-3.1701896E-1,-6.344348E-1,-1.1157761E-2,-4.7196501E-1,-1.3309342E-1,-2.5421694E-1,-7.990197E-1,-6.1026807E-3,-5.633861E-1,-3.4879613E-1,-8.380002E-1,1.5785037E-2,-5.8399963E-1,-9.220288E-3,7.929207E-1,-8.592173E-1,-6.799192E-3,-4.4264325E-1,3.5225624E-1,-2.2765352E-1,2.935161E-1,-7.928622E-1,-1.4814734E-1,1.18632555E-1,-2.8953264E-2,-1.890346E-1,-6.8961775E-1,-7.2200245E-1,-1.2787138E-2,5.068546E-1,-3.539107E-1,1.5402564E-1,-2.98684E-1,-6.805248E-1,-2.1960197E-2,6.519533E-2,-7.214481E-1,-1.6361527E-1,-8.8026386E-1,1.8570863E-1,-6.814202E-1,2.764415E-3,1.0822248E0],"categories":[],"categories_nodes":[],"categories_segments":[],"categories_sizes":[],"default_left":[1,1,1,1,1,1,1,0,0,1,1,1,0,1,1,1,0,0,0,1,0,1,1,0,0,1,1,1,1,0,1,1,0,0,0,0,0,0,0,0,0,0,0,0,0],"id":13,"left_children":[1,3,5,7,9,11,13,-1,-1,15,17,19,-1,21,23,25,-1,-1,-1,27,-1,29,31,-1,-1,33,35,37,39,-1,41,43,-1,-1,-1,-1,-1,-1,-1,-1,-1,-1,-1,-1,-1],"loss_changes":[3.7376466E0,2.2408984E0,1.2117467E0,1.6145039E-1,1.6515602E0,7.8438425E-1,1.4754972E0,0E0,0E0,1.4732672E0,8.778373E-1,1.4442391E0,0E0,1.2428561E0,3.784896E-1,1.4848733E0,0E0,0E0,0E0,9.790907E-1,0E0,1.0351763E0,1.3619318E0,0E0,0E0,1.2085146E0,2.306519E0,1.4163942E0,7.180104E-1,0E0,1.1712856E0,1.9840213E0,0E0,0E0,0E0,0E0,0E0,0E0,0E0,0E0,0E0,0E0,0E0,0E0,0E0],"parents":[2147483647,0,0,1,1,2,2,3,3,4,4,5,5,6,6,9,9,10,10,11,11,13,13,14,14,15,15,19,19,21,21,22,22,25,25,26,26,27,27,28,28,30,30,31,31],"right_children":[2,4,6,8,10,12,14,-1,-1,16,18,20,-1,22,24,26,-1,-1,-1,28,-1,30,32,-1,-1,34,36,38,40,-1,42,44,-1,-1,-1,-1,-1,-1,-1,-1,-1,-1,-1,-1,-1],"split_conditions":[5E-1,1.9325E1,9.355E1,1.9275E1,7.05E1,7.9725E1,1.10025E2,-7.626508E-2,-2.3970592E-1,7.642325E3,7.5462E3,4.759275E3,-2.5140005E-1,5E-1,5E-1,1.5E0,2.3787622E-1,-2.577652E-1,-2.0397578E-3,5E-1,1.05676875E-1,5E-1,7.15E1,-2.3785867E-1,-4.4444203E-2,5E-1,5.0875E1,5E-1,1.05355E3,-2.1660075E-1,5E-1,6.75E1,-1.0617322E-1,4.6207696E-2,-8.9605205E-2,-2.0415746E-1,-6.5880595E-3,1.95586E-2,-2.1643445E-1,-4.9084585E-2,-2.6407918E-1,5.571259E-2,-2.0442607E-1,8.2932453E-4,3.2466745E-1],"split_indices":[35,7,7,8,4,7,7,0,0,8,8,8,0,36,37,4,0,0,0,3,0,6,4,0,0,26,8,36,8,0,1,4,0,0,0,0,0,0,0,0,0,0,0,0,0],"split_type":[0,0,0,0,0,0,0,0,0,0,0,0,0,0,0,0,0,0,0,0,0,0,0,0,0,0,0,0,0,0,0,0,0,0,0,0,0,0,0,0,0,0,0,0,0],"sum_hessian":[6.404079E2,5.9668414E2,4.3723774E1,4.8259172E0,5.918582E2,2.2881464E1,2.0842308E1,2.2266312E0,2.5992863E0,5.874914E2,4.366827E0,1.8581718E1,4.299746E0,1.6394297E1,4.448012E0,5.861927E2,1.2987297E0,2.4962964E0,1.8705305E0,1.6713015E1,1.8687035E0,8.832601E0,7.561696E0,2.4532802E0,1.9947315E0,7.770683E1,5.0848584E2,9.116762E0,7.596252E0,1.9608893E0,6.871711E0,5.8508596E0,1.7108363E0,7.221326E1,5.4935737E0,4.376706E0,5.0410913E2,6.7643175E0,2.3524451E0,2.5151203E0,5.081132E0,5.855621E0,1.0160902E0,3.6541822E0,2.1966772E0],"tree_param":{"num_deleted":"0","num_feature":"40","num_nodes":"45","size_leaf_vector":"0"}},{"base_weights":[-3.0602017E-2,-1.9979984E-2,-4.5811734E-1,-6.1117053E-1,-1.4350324E-2,-7.367581E-1,-1.7343087E-2,-2.0913826E-1,-7.854199E-1,3.0178074E-2,-6.3829705E-2,-8.9993864E-1,-3.229405E-1,-7.253177E-1,2.659096E-1,1.5746844E-1,-3.770572E-2,-3.868754E-2,-3.3533335E-1,1.8355563E-1,-5.7497776E-1,-2.804424E-1,4.868592E-1,9.4609015E-2,6.547885E-1,-1.447405E-1,1.13539346E-1,-7.532702E-2,2.7476346E-1,6.6637653E-1,-4.228056E-1,-2.922118E-1,9.2189515E-1,1.3505857E-1,-6.883468E-1,1.3361894E-1,8.8815856E-1,-6.646873E-2,-4.3957222E-1,-1.281609E-1,3.3202982E-1,-3.1064972E-2,-4.9675527E-1,8.3838123E-1,-2.676335E-1,-8.270619E-1,-1.2790528E-1],"categories":[],"categories_nodes":[],"categories_segments":[],"categories_sizes":[],"default_left":[1,1,1,1,1,1,1,0,0,1,1,0,1,0,1,1,1,1,1,0,0,0,1,1,1,1,1,1,1,0,1,0,0,0,0,0,0,0,0,0,0,0,0,0,0,0,0],"id":14,"left_children":[1,3,5,7,9,11,13,-1,-1,15,17,-1,19,-1,21,23,25,27,29,-1,-1,-1,31,33,35,37,39,41,43,-1,45,-1,-1,-1,-1,-1,-1,-1,-1,-1,-1,-1,-1,-1,-1,-1,-1],"loss_changes":[2.8781521E0,2.059541E0,1.8748007E0,2.4470901E-1,1.3604691E0,3.4360075E-1,1.5919551E0,0E0,0E0,2.8161669E0,1.9829355E0,0E0,6.437244E-1,0E0,8.2640624E-1,3.4802375E0,3.4631724E0,3.1070766E0,2.4417176E0,0E0,0E0,0E0,1.7724087E0,3.3158321E0,1.4072213E0,2.8581412E0,4.7317214E0,4.4874363E0,8.888234E0,0E0,2.66992E0,0E0,0E0,0E0,0E0,0E0,0E0,0E0,0E0,0E0,0E0,0E0,0E0,0E0,0E0,0E0,0E0],"parents":[2147483647,0,0,1,1,2,2,3,3,4,4,5,5,6,6,9,9,10,10,12,12,14,14,15,15,16,16,17,17,18,18,22,22,23,23,24,24,25,25,26,26,27,27,28,28,30,30],"right_children":[2,4,6,8,10,12,14,-1,-1,16,18,-1,20,-1,22,24,26,28,30,-1,-1,-1,32,34,36,38,40,42,44,-1,46,-1,-1,-1,-1,-1,-1,-1,-1,-1,-1,-1,-1,-1,-1,-1,-1],"split_conditions":[7.05E1,1.9325E1,5E-1,1.9275E1,5E-1,7.524925E3,5E-1,-6.274148E-2,-2.3562597E-1,1.1594E3,4.75E1,-2.699816E-1,7.71995E3,-2.1759532E-1,5E-1,9.1475E1,4.057425E3,2.328675E3,1.101E3,5.5066694E-2,-1.7249334E-1,-8.4132716E-2,5E-1,8.7524994E1,5E-1,5E-1,5E-1,2.25E1,8.56E1,1.9991297E-1,5E-1,-8.7663546E-2,2.7656856E-1,4.0517572E-2,-2.0650405E-1,4.008568E-2,2.6644757E-1,-1.994062E-2,-1.3187167E-1,-3.844827E-2,9.960895E-2,-9.319492E-3,-1.4902659E-1,2.5151438E-1,-8.029005E-2,-2.4811858E-1,-3.8371585E-2],"split_indices":[4,7,15,8,9,8,2,0,0,8,4,0,8,0,35,7,8,8,8,0,0,0,24,7,18,36,0,4,7,0,20,0,0,0,0,0,0,0,0,0,0,0,0,0,0,0,0],"split_type":[0,0,0,0,0,0,0,0,0,0,0,0,0,0,0,0,0,0,0,0,0,0,0,0,0,0,0,0,0,0,0,0,0,0,0,0,0,0,0,0,0,0,0,0,0,0,0],"sum_hessian":[6.348189E2,6.2045E2,1.4368946E1,4.8379426E0,6.1561206E2,8.392204E0,5.9767423E0,2.1281192E0,2.7098236E0,3.2422214E2,2.913899E2,5.1763086E0,3.2158954E0,1.2619338E0,4.7148085E0,1.1230915E2,2.11913E2,2.6773886E2,2.3651041E1,1.1588246E0,2.0570707E0,1.2801254E0,3.434683E0,1.0076328E2,1.1545871E1,1.2411846E2,8.779453E1,2.4039824E2,2.734061E1,1.3679128E0,2.2283129E1,1.3483448E0,2.0863383E0,9.660017E1,4.1631174E0,4.057374E0,7.488497E0,9.9048546E1,2.5069918E1,4.187959E1,4.5914944E1,2.1852098E2,2.1877253E1,1.3140403E1,1.4200208E1,8.637751E0,1.3645378E1],"tree_param":{"num_deleted":"0","num_feature":"40","num_nodes":"47","size_leaf_vector":"0"}},{"base_weights":[-2.430529E-2,-8.414351E-3,-2.5664583E-1,-5.783876E-1,-4.801102E-3,-4.509821E-1,-1.3439484E-1,-1.7870587E-1,-6.8313766E-1,2.6133722E-1,-1.1672564E-2,-8.249127E-1,-2.4210359E-1,5.1347315E-1,-1.9784716E-1,3.9343825E-1,-5.455169E-1,-1.777804E-1,3.316099E-3,3.2397044E-1,-5.146305E-1,-8.334435E-1,-3.874334E-2,2.1109828E-1,9.581933E-1,-5.0130524E-2,-5.461373E-1,7.492998E-1,-3.1582118E-4,7.550916E-1,-5.3153217E-1,4.12775E-2,-7.339816E-1,8.036852E-1,-2.0599411E-1,3.7281504E-1,-5.9028226E-1,-1.4927286E-1,1.079541E0,-6.8047E-1,2.971095E-1,-7.111627E-2,2.2377804E-2,-1.6765521E-1,2.4816352E-1,-1.5632033E-1,-8.328703E-1,-5.890672E-1,-5.1832996E-2],"categories":[],"categories_nodes":[],"categories_segments":[],"categories_sizes":[],"default_left":[1,1,1,1,1,1,1,0,0,1,1,0,1,0,1,1,0,1,1,1,1,0,1,1,0,1,1,0,1,0,0,1,1,0,1,0,0,0,0,0,0,0,0,0,0,0,0,0,0],"id":15,"left_children":[1,3,5,7,9,11,13,-1,-1,15,17,-1,19,-1,21,23,-1,25,27,29,31,-1,33,35,-1,37,39,-1,41,-1,-1,43,45,-1,47,-1,-1,-1,-1,-1,-1,-1,-1,-1,-1,-1,-1,-1,-1],"loss_changes":[2.3214169E0,1.2124699E0,8.957379E-1,3.3193946E-2,1.0772141E0,9.812255E-1,1.175939E0,0E0,0E0,1.7949301E0,1.4285676E0,0E0,1.8816271E0,0E0,2.4478133E0,1.1695471E0,0E0,2.205567E0,1.4282225E0,1.9600853E0,9.923973E-1,0E0,3.0769966E0,1.6913502E0,0E0,4.23432E0,1.5751152E0,0E0,8.459284E-1,0E0,0E0,1.7902544E-1,1.9603348E-1,0E0,1.0346265E0,0E0,0E0,0E0,0E0,0E0,0E0,0E0,0E0,0E0,0E0,0E0,0E0,0E0,0E0],"parents":[2147483647,0,0,1,1,2,2,3,3,4,4,5,5,6,6,9,9,10,10,12,12,14,14,15,15,17,17,18,18,19,19,20,20,22,22,23,23,25,25,26,26,28,28,31,31,32,32,34,34],"right_children":[2,4,6,8,10,12,14,-1,-1,16,18,-1,20,-1,22,24,-1,26,28,30,32,-1,34,36,-1,38,40,-1,42,-1,-1,44,46,-1,48,-1,-1,-1,-1,-1,-1,-1,-1,-1,-1,-1,-1,-1,-1],"split_conditions":[5E-1,1.9225E1,5E-1,1.9175E1,2.0225E1,4.55E1,1.3291001E3,-5.3611763E-2,-2.049413E-1,5E-1,2.5275E1,-2.4747382E-1,5E-1,1.5404195E-1,4.759275E3,2.0099998E1,-1.6365507E-1,2.4275E1,2.5525E1,5E-1,5E-1,-2.5003308E-1,5.30105E3,2.0025E1,2.87458E-1,2.22E1,5E-1,2.2478996E-1,5E-1,2.265275E-1,-1.5945965E-1,6.95E1,5.45E1,2.4110557E-1,6.427025E3,1.1184452E-1,-1.7708468E-1,-4.478186E-2,3.238623E-1,-2.04141E-1,8.913286E-2,-2.1334881E-2,6.7133415E-3,-5.0296567E-2,7.444906E-2,-4.6896104E-2,-2.498611E-1,-1.7672017E-1,-1.5549899E-2],"split_indices":[35,7,11,8,8,4,8,0,0,36,7,0,2,0,8,7,0,7,7,32,5,0,8,7,0,7,1,0,24,0,0,4,4,0,8,0,0,0,0,0,0,0,0,0,0,0,0,0,0],"split_type":[0,0,0,0,0,0,0,0,0,0,0,0,0,0,0,0,0,0,0,0,0,0,0,0,0,0,0,0,0,0,0,0,0,0,0,0,0,0,0,0,0,0,0,0,0,0,0,0,0],"sum_hessian":[6.2833575E2,5.890817E2,3.9254044E1,2.7087882E0,5.863729E2,1.4119694E1,2.513435E1,1.1244369E0,1.5843514E0,1.3826513E1,5.725464E2,4.003483E0,1.0116211E1,1.6094184E0,2.3524933E1,1.2321563E1,1.50495E0,4.648855E1,5.2605786E2,3.2262018E0,6.8900094E0,3.8612883E0,1.9663643E1,1.0352791E1,1.968772E0,3.5368195E1,1.1120353E1,1.5540394E0,5.245038E2,2.22321E0,1.0029917E0,2.1791492E0,4.7108603E0,2.6268985E0,1.7036745E1,9.059407E0,1.2933836E0,3.331248E1,2.0557115E0,9.758775E0,1.3615776E0,1.26793816E2,3.9771E2,1.1785575E0,1.0005915E0,1.0657895E0,3.6450708E0,4.0792217E0,1.2957523E1],"tree_param":{"num_deleted":"0","num_feature":"40","num_nodes":"49","size_leaf_vector":"0"}},{"base_weights":[-1.8725475E-2,-1.0571913E-2,-3.841762E-1,-5.028935E-1,-6.5574045E-3,-6.52911E-1,-1.7172242E-2,-1.3014679E-1,-7.037845E-1,1.5055661E-2,-8.317957E-2,-8.437976E-1,-2.5849885E-1,-6.550497E-1,2.2068286E-1,3.602988E-3,4.2328975E-1,-2.1539025E-1,4.4183113E-2,1.5842168E-1,-4.894896E-1,-1.18165635E-1,5.0954944E-1,2.5932401E-2,-3.927441E-1,-1.5479235E-1,7.3103327E-1,2.7857956E-1,-2.7650532E-1,-1.5487868E-1,4.0227503E-1,3.934902E-1,-6.062118E-1,7.0923185E-1,8.539637E-2,1.7059304E-2,1.0879053E0,-1.9376361E-1,-7.621168E-1,7.499207E-1,-5.520075E-1,1.1266627E0,2.401414E-1,-6.8834856E-2,9.259592E-1,-3.8330948E-1,5.531501E-2,-5.520469E-2,-1.0834776E0,6.902444E-1,-2.6878038E-1],"categories":[],"categories_nodes":[],"categories_segments":[],"categories_sizes":[],"default_left":[1,1,1,1,1,1,1,0,0,1,1,0,1,0,1,1,1,1,1,0,0,1,1,1,1,1,1,1,1,1,1,0,0,0,0,0,0,0,0,0,0,0,0,0,0,0,0,0,0,0,0],"id":16,"left_children":[1,3,5,7,9,11,13,-1,-1,15,17,-1,19,-1,21,23,25,27,29,-1,-1,31,33,35,37,39,41,43,45,47,49,-1,-1,-1,-1,-1,-1,-1,-1,-1,-1,-1,-1,-1,-1,-1,-1,-1,-1,-1,-1],"loss_changes":[1.8596952E0,1.207971E0,1.3323011E0,2.7860022E-1,1.0096371E0,3.719046E-1,1.1740385E0,0E0,0E0,2.2229748E0,2.267964E0,0E0,4.6252862E-1,0E0,6.171949E-1,4.1150475E0,2.4214418E0,2.0688655E0,4.9910164E0,0E0,0E0,1.0951452E0,2.1554059E-1,4.127718E0,1.6749904E0,2.3304298E0,1.4078498E0,1.8095798E0,2.1198225E0,4.1202216E0,5.013091E0,0E0,0E0,0E0,0E0,0E0,0E0,0E0,0E0,0E0,0E0,0E0,0E0,0E0,0E0,0E0,0E0,0E0,0E0,0E0,0E0],"parents":[2147483647,0,0,1,1,2,2,3,3,4,4,5,5,6,6,9,9,10,10,12,12,14,14,15,15,16,16,17,17,18,18,21,21,22,22,23,23,24,24,25,25,26,26,27,27,28,28,29,29,30,30],"right_children":[2,4,6,8,10,12,14,-1,-1,16,18,-1,20,-1,22,24,26,28,30,-1,-1,32,34,36,38,40,42,44,46,48,50,-1,-1,-1,-1,-1,-1,-1,-1,-1,-1,-1,-1,-1,-1,-1,-1,-1,-1,-1,-1],"split_conditions":[7.05E1,1.9325E1,5E-1,1.9275E1,5E-1,7.524925E3,5E-1,-3.9044037E-2,-2.1113537E-1,6.8718E3,5E-1,-2.531393E-1,7.71995E3,-1.9651492E-1,7.367775E3,5.95E1,5E-1,2.0025E1,1.9682E3,4.7526505E-2,-1.4684688E-1,6.5871504E3,7.6993E3,6.142025E3,1.0025E2,7.002625E3,1.06925E2,5E-1,4.5335996E3,1.609175E3,5.05E1,1.18047066E-1,-1.8186355E-1,2.1276957E-1,2.5618913E-2,5.1177912E-3,3.263716E-1,-5.8129087E-2,-2.2863504E-1,2.2497623E-1,-1.6560225E-1,3.3799884E-1,7.204243E-2,-2.0650458E-2,2.7778777E-1,-1.1499285E-1,1.6594503E-2,-1.6561408E-2,-3.250433E-1,2.0707332E-1,-8.063412E-2],"split_indices":[4,7,15,8,3,8,2,0,0,8,18,0,8,0,8,4,0,7,8,0,0,8,8,8,7,8,7,6,8,8,4,0,0,0,0,0,0,0,0,0,0,0,0,0,0,0,0,0,0,0,0],"split_type":[0,0,0,0,0,0,0,0,0,0,0,0,0,0,0,0,0,0,0,0,0,0,0,0,0,0,0,0,0,0,0,0,0,0,0,0,0,0,0,0,0,0,0,0,0,0,0,0,0,0,0],"sum_hessian":[6.244793E2,6.118571E2,1.2622201E1,3.9437523E0,6.079134E2,6.836913E0,5.785288E0,1.9582084E0,1.9855438E0,4.7479102E2,1.3312236E2,3.8393662E0,2.997547E0,1.0949298E0,4.690358E0,4.6281592E2,1.1975096E1,6.4978905E1,6.8143456E1,1.180678E0,1.8168689E0,2.430384E0,2.2599742E0,4.3901712E2,2.3798788E1,4.332917E0,7.642178E0,6.7624335E0,5.821647E1,4.416166E1,2.3981792E1,1.2810773E0,1.1493068E0,1.0796053E0,1.1803688E0,4.3638705E2,2.6300793E0,1.6457653E1,7.3411365E0,1.0510525E0,3.281865E0,3.5145373E0,4.1276407E0,4.982344E0,1.7800891E0,4.392349E1,1.429298E1,4.0837673E1,3.3239863E0,1.6760696E1,7.2210965E0],"tree_param":{"num_deleted":"0","num_feature":"40","num_nodes":"51","size_leaf_vector":"0"}},{"base_weights":[-1.4706006E-2,-8.106494E-3,-3.3310425E-1,-5.282535E-1,-5.0694663E-3,-5.854542E-1,-2.1842657E-2,-1.3524877E-1,-6.4194244E-1,2.45795E-2,-5.173608E-2,-7.927042E-1,-2.1631032E-1,-2.5854066E-1,3.9520353E-1,9.341932E-3,7.7261084E-1,-1.3280833E-1,4.8673574E-2,2.8546375E-1,-4.9291727E-1,2.8742254E-1,-5.604776E-1,-2.6697239E-2,1.8996434E-1,1.2528175E0,3.4150723E-2,-8.9690715E-2,-6.700909E-1,5.450512E-1,7.7938125E-4,-6.912932E-1,-1.3082181E-1,-1.0834718E-2,-1.174209E0,4.1443953E-1,3.4359095E-3,1.5862052E0,3.0158165E-1,-6.734717E-1,5.849665E-1,-4.3630343E-2,-4.9957657E-1,-1.9381946E-1,-1.0400298E0,2.2987814E-1,1.0982153E0,4.0511303E-2,-7.1556664E-1],"categories":[],"categories_nodes":[],"categories_segments":[],"categories_sizes":[],"default_left":[1,1,1,1,1,1,1,0,0,1,1,0,1,1,0,1,1,1,1,0,0,0,1,1,1,1,1,1,1,1,1,0,0,0,0,0,0,0,0,0,0,0,0,0,0,0,0,0,0],"id":17,"left_children":[1,3,5,7,9,11,13,-1,-1,15,17,-1,19,21,-1,23,25,27,29,-1,-1,-1,31,33,35,37,39,41,43,45,47,-1,-1,-1,-1,-1,-1,-1,-1,-1,-1,-1,-1,-1,-1,-1,-1,-1,-1],"loss_changes":[1.3032748E0,9.6081394E-1,9.7657E-1,7.093674E-2,8.4166604E-1,3.5774755E-1,7.61423E-1,0E0,0E0,4.2339735E0,1.9300157E0,0E0,6.768068E-1,9.630517E-1,0E0,2.3854437E0,2.587057E0,2.9748082E0,2.5264895E0,0E0,0E0,0E0,1.0468042E-1,5.552273E0,2.550593E0,9.3787193E-1,1.9336549E0,2.2895691E0,1.4859409E0,1.3779621E0,2.8165064E0,0E0,0E0,0E0,0E0,0E0,0E0,0E0,0E0,0E0,0E0,0E0,0E0,0E0,0E0,0E0,0E0,0E0,0E0],"parents":[2147483647,0,0,1,1,2,2,3,3,4,4,5,5,6,6,9,9,10,10,12,12,13,13,15,15,16,16,17,17,18,18,22,22,23,23,24,24,25,25,26,26,27,27,28,28,29,29,30,30],"right_children":[2,4,6,8,10,12,14,-1,-1,16,18,-1,20,22,-1,24,26,28,30,-1,-1,-1,32,34,36,38,40,42,44,46,48,-1,-1,-1,-1,-1,-1,-1,-1,-1,-1,-1,-1,-1,-1,-1,-1,-1,-1],"split_conditions":[7.05E1,1.9225E1,5E-1,1.9175E1,2.55E1,7.524925E3,7.656575E3,-4.0574633E-2,-1.9258274E-1,2.45E1,4.04225E3,-2.3781128E-1,7.6954746E3,6.5871504E3,1.1856107E-1,8.9375E1,5E-1,3.866275E3,4.35E1,8.563913E-2,-1.4787519E-1,8.622676E-2,5E-1,8.8975E1,5E-1,5E-1,5E-1,1.00275E2,5E-1,4.5173E3,5E-1,-2.0738797E-1,-3.9246544E-2,-3.2504157E-3,-3.522627E-1,1.2433186E-1,1.0307729E-3,4.7586158E-1,9.04745E-2,-2.0204152E-1,1.7548995E-1,-1.3089104E-2,-1.4987297E-1,-5.814584E-2,-3.1200895E-1,6.8963446E-2,3.294646E-1,1.2153392E-2,-2.1467E-1],"split_indices":[4,7,15,8,4,8,8,0,0,4,8,0,8,8,0,7,2,8,4,0,0,0,38,7,0,18,29,7,38,8,39,0,0,0,0,0,0,0,0,0,0,0,0,0,0,0,0,0,0],"split_type":[0,0,0,0,0,0,0,0,0,0,0,0,0,0,0,0,0,0,0,0,0,0,0,0,0,0,0,0,0,0,0,0,0,0,0,0,0,0,0,0,0,0,0,0,0,0,0,0,0],"sum_hessian":[6.205162E2,6.089204E2,1.159577E1,2.530834E0,6.063896E2,5.917418E0,5.678352E0,1.0591518E0,1.4716823E0,3.7109372E2,2.3529582E2,3.054887E0,2.8625307E0,3.8648765E0,1.8134754E0,3.6467764E2,6.416078E0,1.300051E2,1.05290726E2,1.0058558E0,1.8566748E0,1.3933995E0,2.471477E0,3.0472815E2,5.9949505E1,3.465804E0,2.950274E0,1.2142733E2,8.577766E0,8.351814E0,9.693891E1,1.4278111E0,1.0436659E0,3.0156888E2,3.1592672E0,2.6652748E1,3.3296757E1,2.0720682E0,1.3937358E0,1.1938621E0,1.756412E0,1.10155235E2,1.12720995E1,4.416169E0,4.1615977E0,6.222198E0,2.1296163E0,9.273864E1,4.200274E0],"tree_param":{"num_deleted":"0","num_feature":"40","num_nodes":"49","size_leaf_vector":"0"}},{"base_weights":[-1.1745027E-2,-1.3260542E-3,-1.8024197E-1,3.3605635E-2,-3.8894475E-2,-6.7965657E-1,-1.3103132E-1,9.401076E-1,2.588079E-2,-1.3507847E-2,-2.645772E-1,4.2635858E-1,-1.877897E-1,-6.295081E-2,1.08705856E-1,-3.4090128E-2,1.1669025E0,-5.1456684E-1,4.1942514E-2,7.4573445E-1,-9.810438E-2,-4.5644245E-1,-7.332581E-2,-1.853453E-2,-3.7052336E-1,9.155721E-1,8.100665E-2,-1.7739205E-2,-5.6770545E-1,5.480644E-2,2.0295227E0,-1.0076544E0,-4.6953455E-2,-7.0533735E-1,3.954211E-1,-1.9881248E-1,-7.706247E-1,7.2585225E-1,-1.667725E-1,-4.2104006E-2,9.5758605E-1,4.0779647E-1,-5.0017655E-1,-1.5360205E-1,1.3850711E-1,-4.3792326E-2,6.5810347E-1,1.8167879E-1,-9.885305E-1,3.3372492E-1,-5.246148E-1,-8.344118E-1,-1.1533202E-1,7.1018994E-1,-3.6888635E-1,1.3473533E-1,-6.715428E-1,-4.0369192E-1,-1.7138625E-3],"categories":[],"categories_nodes":[],"categories_segments":[],"categories_sizes":[],"default_left":[1,1,1,1,1,0,1,0,1,1,1,1,1,1,1,1,1,1,1,0,0,1,1,1,1,0,1,1,1,0,0,0,1,1,1,1,0,0,1,0,0,0,0,0,0,0,0,0,0,0,0,0,0,0,0,0,0,0,0],"id":18,"left_children":[1,3,5,7,9,-1,11,-1,13,15,17,19,21,23,25,27,29,31,33,-1,-1,35,37,39,41,-1,43,45,47,-1,-1,-1,49,51,53,55,-1,-1,57,-1,-1,-1,-1,-1,-1,-1,-1,-1,-1,-1,-1,-1,-1,-1,-1,-1,-1,-1,-1],"loss_changes":[1.0850025E0,7.6663214E-1,7.954812E-1,2.0955756E0,1.6089405E0,0E0,1.1557609E0,0E0,2.2229323E0,6.211931E0,2.1981394E0,6.507261E-1,9.368347E-1,1.987188E0,3.417672E0,2.1769857E0,4.0926204E0,3.5774016E0,3.8935764E0,0E0,0E0,5.943668E-1,1.862428E0,2.9989376E0,2.0573256E0,0E0,2.073783E0,4.3293934E0,2.519606E0,0E0,0E0,0E0,1.8329577E0,2.6577115E-1,2.6511166E0,1.1031425E0,0E0,0E0,8.474992E-1,0E0,0E0,0E0,0E0,0E0,0E0,0E0,0E0,0E0,0E0,0E0,0E0,0E0,0E0,0E0,0E0,0E0,0E0,0E0,0E0],"parents":[2147483647,0,0,1,1,2,2,3,3,4,4,6,6,8,8,9,9,10,10,11,11,12,12,13,13,14,14,15,15,16,16,17,17,18,18,21,21,22,22,23,23,24,24,26,26,27,27,28,28,32,32,33,33,34,34,35,35,38,38],"right_children":[2,4,6,8,10,-1,12,-1,14,16,18,20,22,24,26,28,30,32,34,-1,-1,36,38,40,42,-1,44,46,48,-1,-1,-1,50,52,54,56,-1,-1,58,-1,-1,-1,-1,-1,-1,-1,-1,-1,-1,-1,-1,-1,-1,-1,-1,-1,-1,-1,-1],"split_conditions":[5E-1,5E-1,6.90925E2,2.4125E1,3.95E1,-2.0389698E-1,1.101E3,2.8203228E-1,5E-1,3.75E1,5E-1,5E-1,4.4801E3,9.0225E1,2.5E0,2.653975E3,5E-1,5.15E1,7E1,2.2372034E-1,-2.9431315E-2,5E-1,4.7721504E3,8.9925E1,1.45E1,2.7467164E-1,5E-1,2.328675E3,5E-1,1.6441934E-2,6.088568E-1,-3.0229634E-1,5E-1,5E-1,5E-1,5.48E1,-2.3118742E-1,2.1775569E-1,5E-1,-1.2631202E-2,2.8727582E-1,1.2233894E-1,-1.5005296E-1,-4.6080615E-2,4.1552134E-2,-1.3137698E-2,1.9743104E-1,5.450364E-2,-2.9655915E-1,1.0011748E-1,-1.5738446E-1,-2.5032356E-1,-3.459961E-2,2.13057E-1,-1.1066591E-1,4.04206E-2,-2.0146285E-1,-1.2110758E-1,-5.141588E-4],"split_indices":[35,9,8,7,4,0,8,0,32,4,21,2,8,7,4,8,37,4,7,0,0,3,8,7,4,0,6,8,33,0,0,0,26,38,3,7,0,0,0,0,0,0,0,0,0,0,0,0,0,0,0,0,0,0,0,0,0,0,0],"split_type":[0,0,0,0,0,0,0,0,0,0,0,0,0,0,0,0,0,0,0,0,0,0,0,0,0,0,0,0,0,0,0,0,0,0,0,0,0,0,0,0,0,0,0,0,0,0,0,0,0,0,0,0,0,0,0,0,0,0,0],"sum_hessian":[6.1717224E2,5.821811E2,3.4991173E1,3.0173175E2,2.804493E2,1.9895046E0,3.3001667E1,1.5296524E0,3.0020212E2,2.5304465E2,2.7404665E1,2.4481394E0,3.0553528E1,1.4496455E2,1.5523755E2,2.496625E2,3.382132E0,1.4720369E1,1.2684295E1,1.2593483E0,1.1887913E0,8.235865E0,2.2317663E1,1.2759844E2,1.736612E1,4.088455E0,1.511491E2,2.4324237E2,6.420136E0,1.9420115E0,1.4401205E0,6.602887E0,8.117482E0,3.7535641E0,8.930731E0,5.4223347E0,2.81353E0,1.6279026E0,2.068976E1,1.2552438E2,2.0740547E0,2.1734455E0,1.5192674E1,2.942407E1,1.2172502E2,2.3511414E2,8.128233E0,2.5131404E0,3.9069955E0,4.685026E0,3.432456E0,2.7399137E0,1.0136504E0,6.3757687E0,2.5549614E0,3.5983825E0,1.8239524E0,7.9019003E0,1.2787861E1],"tree_param":{"num_deleted":"0","num_feature":"40","num_nodes":"59","size_leaf_vector":"0"}},{"base_weights":[-8.722076E-3,-8.791277E-2,1.1449208E-2,-2.700884E-1,1.5971527E-2,2.5885433E-2,-2.2943068E-1,-1.8615939E-1,-8.001129E-1,7.3801965E-1,-3.2788694E-2,9.056935E-3,3.0487898E-1,9.10287E-1,-3.1793606E-1,-2.5792244E-1,7.50974E-1,-8.5744604E-2,1.2795254E0,-2.6083195E-1,4.4782553E-2,1.654197E-2,-8.8084173E-1,-1.21584274E-1,5.9899694E-1,-4.863829E-1,3.573017E-1,-3.9398485E-1,-2.6830502E-2,1.6466466E0,2.8053454E-1,2.8526333E-1,-4.1454694E-1,1.1831152E0,2.1113788E-3,3.1447664E-2,-2.932984E-1,5.965545E-1,-5.205776E-1,7.2025955E-1,-3.23488E-1,-7.247715E-1,-2.3193373E-1,8.3609736E-1,-5.431565E-1,-5.027113E-1,6.781166E-2,2.421748E-1,-6.601424E-1,7.998383E-1,-5.0376225E-1,-6.017623E-1,2.9560405E-1,3.874939E-2,-7.3506665E-1,3.7900735E-2,-8.4077466E-1,6.9449164E-2,-6.523319E-1,9.5545805E-1,-2.8064287E-1,-1.1238298E0,3.3571804E-1,2.7144122E-1,1.1824095E0,-1.22593164E-1,-1.064858E0,1.3543318E-1,-7.4910486E-1,1.0891759E0,2.323865E-2],"categories":[],"categories_nodes":[],"categories_segments":[],"categories_sizes":[],"default_left":[1,1,1,1,1,1,1,1,0,1,1,1,1,0,1,1,0,0,1,1,1,1,0,1,1,1,1,1,1,0,0,1,1,0,1,1,1,1,1,1,0,1,1,1,0,0,0,0,0,0,0,0,0,0,0,0,0,0,0,0,0,0,0,0,0,0,0,0,0,0,0],"id":19,"left_children":[1,3,5,7,9,11,13,15,-1,17,19,21,23,-1,25,27,-1,-1,29,31,33,35,-1,37,39,41,43,45,47,-1,-1,49,51,-1,53,55,57,59,61,63,-1,65,67,69,-1,-1,-1,-1,-1,-1,-1,-1,-1,-1,-1,-1,-1,-1,-1,-1,-1,-1,-1,-1,-1,-1,-1,-1,-1,-1,-1],"loss_changes":[9.81276E-1,2.3642097E0,1.709787E0,1.8679719E0,2.853315E0,2.1718514E0,3.0942366E0,2.9136856E0,0E0,2.3961713E0,1.3601655E0,2.9310837E0,3.3739042E0,0E0,3.1928825E0,1.1940873E0,0E0,0E0,6.9535303E-1,1.7547555E0,2.8019218E0,2.019069E0,0E0,3.6267123E0,1.9942269E0,1.1461968E0,2.9875107E0,1.241194E0,2.7615333E0,0E0,0E0,2.3820682E0,2.2546864E0,0E0,1.5585488E0,2.373958E0,2.6593947E0,1.7162118E0,4.496292E0,2.629673E0,0E0,2.064042E0,2.372091E0,8.44882E-1,0E0,0E0,0E0,0E0,0E0,0E0,0E0,0E0,0E0,0E0,0E0,0E0,0E0,0E0,0E0,0E0,0E0,0E0,0E0,0E0,0E0,0E0,0E0,0E0,0E0,0E0,0E0],"parents":[2147483647,0,0,1,1,2,2,3,3,4,4,5,5,6,6,7,7,9,9,10,10,11,11,12,12,14,14,15,15,18,18,19,19,20,20,21,21,23,23,24,24,25,25,26,26,27,27,28,28,31,31,32,32,34,34,35,35,36,36,37,37,38,38,39,39,41,41,42,42,43,43],"right_children":[2,4,6,8,10,12,14,16,-1,18,20,22,24,-1,26,28,-1,-1,30,32,34,36,-1,38,40,42,44,46,48,-1,-1,50,52,-1,54,56,58,60,62,64,-1,66,68,70,-1,-1,-1,-1,-1,-1,-1,-1,-1,-1,-1,-1,-1,-1,-1,-1,-1,-1,-1,-1,-1,-1,-1,-1,-1,-1,-1],"split_conditions":[5E-1,2.993225E3,5.45E1,2.588325E3,3.23335E3,4.041475E3,2.658975E3,2.497275E3,-2.4003388E-1,5E-1,4.759275E3,4.95E1,5E-1,2.7308613E-1,6.700625E3,5E-1,2.252922E-1,-2.5723383E-2,5E-1,3.95E1,4.838375E3,3.4098E3,-2.6425254E-1,9.6575E1,1.0755E2,9.1825E1,1.05775E2,5.25E1,5E-1,4.93994E-1,8.4160365E-2,1.03775E2,6.35E1,3.5493457E-1,5E-1,1.06975006E2,5E-1,5.05E1,1.05E2,9.9175E1,-9.7046405E-2,5E-1,5E-1,5E-1,-1.6294695E-1,-1.508134E-1,2.03435E-2,7.2652444E-2,-1.9804274E-1,2.399515E-1,-1.5112868E-1,-1.805287E-1,8.868122E-2,1.1624817E-2,-2.2052E-1,1.1370221E-2,-2.522324E-1,2.083475E-2,-1.9569957E-1,2.8663743E-1,-8.4192865E-2,-3.3714896E-1,1.0071541E-1,8.143237E-2,3.5472286E-1,-3.677795E-2,-3.194574E-1,4.0629957E-2,-2.2473146E-1,3.2675278E-1,6.9715953E-3],"split_indices":[33,8,4,8,8,8,8,8,0,38,8,4,0,0,8,15,0,0,9,4,8,8,0,7,7,7,7,4,38,0,0,7,4,0,39,7,2,4,7,7,0,0,1,18,0,0,0,0,0,0,0,0,0,0,0,0,0,0,0,0,0,0,0,0,0,0,0,0,0,0,0],"split_type":[0,0,0,0,0,0,0,0,0,0,0,0,0,0,0,0,0,0,0,0,0,0,0,0,0,0,0,0,0,0,0,